{"learner":{"attributes":{},"feature_names":["Sales_lag_1","Sales_lag_2","Sales_lag_3","Sales_lag_4","Sales_lag_5","Sales_lag_6"],"feature_types":["float","float","float","float","float","float"],"gradient_booster":{"model":{"gbtree_model_param":{"num_parallel_tree":"1","num_trees":"200"},"iteration_indptr":[0,1,2,3,4,5,6,7,8,9,10,11,12,13,14,15,16,17,18,19,20,21,22,23,24,25,26,27,28,29,30,31,32,33,34,35,36,37,38,39,40,41,42,43,44,45,46,47,48,49,50,51,52,53,54,55,56,57,58,59,60,61,62,63,64,65,66,67,68,69,70,71,72,73,74,75,76,77,78,79,80,81,82,83,84,85,86,87,88,89,90,91,92,93,94,95,96,97,98,99,100,101,102,103,104,105,106,107,108,109,110,111,112,113,114,115,116,117,118,119,120,121,122,123,124,125,126,127,128,129,130,131,132,133,134,135,136,137,138,139,140,141,142,143,144,145,146,147,148,149,150,151,152,153,154,155,156,157,158,159,160,161,162,163,164,165,166,167,168,169,170,171,172,173,174,175,176,177,178,179,180,181,182,183,184,185,186,187,188,189,190,191,192,193,194,195,196,197,198,199,200],"tree_info":[0,0,0,0,0,0,0,0,0,0,0,0,0,0,0,0,0,0,0,0,0,0,0,0,0,0,0,0,0,0,0,0,0,0,0,0,0,0,0,0,0,0,0,0,0,0,0,0,0,0,0,0,0,0,0,0,0,0,0,0,0,0,0,0,0,0,0,0,0,0,0,0,0,0,0,0,0,0,0,0,0,0,0,0,0,0,0,0,0,0,0,0,0,0,0,0,0,0,0,0,0,0,0,0,0,0,0,0,0,0,0,0,0,0,0,0,0,0,0,0,0,0,0,0,0,0,0,0,0,0,0,0,0,0,0,0,0,0,0,0,0,0,0,0,0,0,0,0,0,0,0,0,0,0,0,0,0,0,0,0,0,0,0,0,0,0,0,0,0,0,0,0,0,0,0,0,0,0,0,0,0,0,0,0,0,0,0,0,0,0,0,0,0,0,0,0,0,0,0,0],"trees":[{"base_weights":[1.6825923E2,-5.843225E2,3.5129885E3,8.3768036E1,-3.152317E3,5.7338226E2,-3.3621418E1,-2.4957227E3,1.2537253E3,-4.3980767E3,-1.9796775E3,-1.1905639E2,8.424908E1,-3.2004837E2,2.4249073E1,-1.079656E2,3.029883E2,-7.606728E1,-5.1172592E2,-2.1781535E2,-2.9517286E1],"categories":[],"categories_nodes":[],"categories_segments":[],"categories_sizes":[],"default_left":[0,0,0,0,0,0,0,0,0,0,0,0,0,0,0,0,0,0,0,0,0],"id":0,"left_children":[1,3,5,7,9,-1,11,13,15,17,19,-1,-1,-1,-1,-1,-1,-1,-1,-1,-1],"loss_changes":[1.7825549E8,9.977192E7,1.0258638E8,1.4496997E8,8.823144E6,0E0,7.0847065E6,2.972288E7,1.4003818E8,9.187232E6,2.031738E6,0E0,0E0,0E0,0E0,0E0,0E0,0E0,0E0,0E0,0E0],"parents":[2147483647,0,0,1,1,2,2,3,3,4,4,6,6,7,7,8,8,9,9,10,10],"right_children":[2,4,6,8,10,-1,12,14,16,18,20,-1,-1,-1,-1,-1,-1,-1,-1,-1,-1],"split_conditions":[1.8581E4,1.5926E4,1.3401E4,1.0677E4,1.3932E4,5.7338226E2,2.0677E4,1.713E4,1.2181E4,7.975E3,2.2015E4,-1.1905639E2,8.424908E1,-3.2004837E2,2.4249073E1,-1.079656E2,3.029883E2,-7.606728E1,-5.1172592E2,-2.1781535E2,-2.9517286E1],"split_indices":[1,2,3,1,1,0,2,5,4,4,4,0,0,0,0,0,0,0,0,0,0],"split_type":[0,0,0,0,0,0,0,0,0,0,0,0,0,0,0,0,0,0,0,0,0],"sum_hessian":[6.9E1,5.7E1,1.2E1,4.6E1,1.1E1,7E0,5E0,1.4E1,3.2E1,4E0,7E0,2E0,3E0,1.1E1,3E0,1.4E1,1.8E1,1E0,3E0,6E0,1E0],"tree_param":{"num_deleted":"0","num_feature":"6","num_nodes":"21","size_leaf_vector":"1"}},{"base_weights":[-4.942689E1,-1.4390092E3,4.276464E3,-3.818584E3,-3.0384613E2,5.0911885E3,1.5213037E2,-2.4379636E3,-4.6792837E3,1.4300687E3,-1.7086925E3,6.0336055E3,3.1521965E3,-8.0214455E1,7.376035E1,-2.7322598E2,-4.1797366E0,-5.098741E2,-2.0009702E2,-9.237432E1,3.405493E2,-2.5230452E2,3.9678375E1,1.15833305E2,6.4982227E2,2.12833E1,3.6066183E2],"categories":[],"categories_nodes":[],"categories_segments":[],"categories_sizes":[],"default_left":[0,0,0,0,0,0,0,0,0,0,0,0,0,0,0,0,0,0,0,0,0,0,0,0,0,0,0],"id":1,"left_children":[1,3,5,7,9,11,13,15,17,19,21,23,25,-1,-1,-1,-1,-1,-1,-1,-1,-1,-1,-1,-1,-1,-1],"loss_changes":[4.4497008E8,1.5010723E8,5.970899E7,9.981488E6,9.744303E7,8.390976E6,2.826474E6,6.232444E6,1.031952E6,8.684178E7,3.8722308E7,1.2859104E7,8.58236E6,0E0,0E0,0E0,0E0,0E0,0E0,0E0,0E0,0E0,0E0,0E0,0E0,0E0,0E0],"parents":[2147483647,0,0,1,1,2,2,3,3,4,4,5,5,6,6,7,7,8,8,9,9,10,10,11,11,12,12],"right_children":[2,4,6,8,10,12,14,16,18,20,22,24,26,-1,-1,-1,-1,-1,-1,-1,-1,-1,-1,-1,-1,-1,-1],"split_conditions":[1.6611E4,1.0792E4,2.0379E4,8.997E3,1.3754E4,1.3401E4,1.8581E4,1.3932E4,9.545E3,1.2181E4,1.9933E4,1.0947E4,1.7697E4,-8.0214455E1,7.376035E1,-2.7322598E2,-4.1797366E0,-5.098741E2,-2.0009702E2,-9.237432E1,3.405493E2,-2.5230452E2,3.9678375E1,1.15833305E2,6.4982227E2,2.12833E1,3.6066183E2],"split_indices":[0,0,2,1,1,2,0,3,0,4,4,2,0,0,0,0,0,0,0,0,0,0,0,0,0,0,0],"split_type":[0,0,0,0,0,0,0,0,0,0,0,0,0,0,0,0,0,0,0,0,0,0,0,0,0,0,0],"sum_hessian":[7.2E1,5.5E1,1.7E1,1.7E1,3.8E1,1.4E1,3E0,8E0,9E0,1.7E1,2.1E1,8E0,6E0,1E0,2E0,7E0,1E0,7E0,2E0,8E0,9E0,1.5E1,6E0,1E0,7E0,1E0,5E0],"tree_param":{"num_deleted":"0","num_feature":"6","num_nodes":"27","size_leaf_vector":"1"}},{"base_weights":[-2.6019385E2,-1.3868969E3,3.558691E3,-3.4961165E3,-2.3517267E2,4.1257783E3,8.259834E1,-4.0825916E3,-1.0374685E3,1.4355513E3,-1.6435294E3,4.764852E3,1.4966497E3,-1.3373808E2,-4.4020563E2,-2.3949545E1,-1.4896188E2,-9.066094E1,3.1657248E2,-2.5292859E2,3.6277344E1,1.6171895E2,5.349619E2,2.0219141E1,1.8607387E2],"categories":[],"categories_nodes":[],"categories_segments":[],"categories_sizes":[],"default_left":[0,0,0,0,0,0,0,0,0,0,0,0,0,0,0,0,0,0,0,0,0,0,0,0,0],"id":2,"left_children":[1,3,5,7,9,11,-1,13,15,17,19,21,23,-1,-1,-1,-1,-1,-1,-1,-1,-1,-1,-1,-1],"loss_changes":[3.018252E8,1.30356744E8,2.1387136E7,2.3161216E7,8.706648E7,1.471136E7,0E0,7.267744E6,1.4472615E6,7.175993E7,3.645948E7,9.755152E6,1.508967E6,0E0,0E0,0E0,0E0,0E0,0E0,0E0,0E0,0E0,0E0,0E0,0E0],"parents":[2147483647,0,0,1,1,2,2,3,3,4,4,5,5,7,7,8,8,9,9,10,10,11,11,12,12],"right_children":[2,4,6,8,10,12,-1,14,16,18,20,22,24,-1,-1,-1,-1,-1,-1,-1,-1,-1,-1,-1,-1],"split_conditions":[1.6611E4,1.0792E4,1.701E4,1.5388E4,1.2759E4,1.7697E4,8.259834E1,8.251E3,8.816E3,1.2181E4,1.9933E4,1.0677E4,1.999E4,-1.3373808E2,-4.4020563E2,-2.3949545E1,-1.4896188E2,-9.066094E1,3.1657248E2,-2.5292859E2,3.6277344E1,1.6171895E2,5.349619E2,2.0219141E1,1.8607387E2],"split_indices":[0,0,3,5,1,5,0,5,1,4,4,5,5,0,0,0,0,0,0,0,0,0,0,0,0],"split_type":[0,0,0,0,0,0,0,0,0,0,0,0,0,0,0,0,0,0,0,0,0,0,0,0,0],"sum_hessian":[6.8E1,5.3E1,1.5E1,1.8E1,3.5E1,1.2E1,3E0,1.4E1,4E0,1.6E1,1.9E1,9E0,3E0,2E0,1.2E1,2E0,2E0,7E0,9E0,1.3E1,6E0,2E0,7E0,1E0,2E0],"tree_param":{"num_deleted":"0","num_feature":"6","num_nodes":"25","size_leaf_vector":"1"}},{"base_weights":[-4.985323E1,-1.2238069E3,3.4158027E3,-3.2062153E3,-2.020074E2,4.748055E3,8.239166E2,-1.9487175E3,-4.0579211E3,1.1000614E3,-1.3173392E3,5.4770807E2,2.9846794E3,-1.02951805E2,1.235767E2,-2.1590788E2,-2.773291E0,-4.4026205E2,-1.671183E2,-4.147863E1,3.7561984E2,-2.0262352E2,9.107557E1,8.996197E1,3.2217673E2],"categories":[],"categories_nodes":[],"categories_segments":[],"categories_sizes":[],"default_left":[0,0,0,0,0,0,0,0,0,0,0,0,0,0,0,0,0,0,0,0,0,0,0,0,0],"id":3,"left_children":[1,3,5,7,9,11,13,15,17,19,21,-1,23,-1,-1,-1,-1,-1,-1,-1,-1,-1,-1,-1,-1],"loss_changes":[3.215248E8,1.18864136E8,6.5148944E7,1.3512608E7,5.9538704E7,3.64768E5,7.378947E6,3.981136E6,1.692192E6,7.800723E7,3.659413E7,0E0,6.7688E4,0E0,0E0,0E0,0E0,0E0,0E0,0E0,0E0,0E0,0E0,0E0,0E0],"parents":[2147483647,0,0,1,1,2,2,3,3,4,4,5,5,6,6,7,7,8,8,9,9,10,10,12,12],"right_children":[2,4,6,8,10,12,14,16,18,20,22,-1,24,-1,-1,-1,-1,-1,-1,-1,-1,-1,-1,-1,-1],"split_conditions":[1.701E4,1.0792E4,1.3401E4,9.364E3,1.3754E4,1.3401E4,1.4587E4,1.6611E4,9.545E3,1.1837E4,1.9933E4,5.4770807E2,1.713E4,-1.02951805E2,1.235767E2,-2.1590788E2,-2.773291E0,-4.4026205E2,-1.671183E2,-4.147863E1,3.7561984E2,-2.0262352E2,9.107557E1,8.996197E1,3.2217673E2],"split_indices":[0,0,3,1,1,2,3,3,0,1,4,0,1,0,0,0,0,0,0,0,0,0,0,0,0],"split_type":[0,0,0,0,0,0,0,0,0,0,0,0,0,0,0,0,0,0,0,0,0,0,0,0,0],"sum_hessian":[7.7E1,5.8E1,1.9E1,1.9E1,3.9E1,1.2E1,7E0,9E0,1E1,1.8E1,2.1E1,7E0,5E0,1E0,6E0,8E0,1E0,8E0,2E0,1.2E1,6E0,1.6E1,5E0,1E0,4E0],"tree_param":{"num_deleted":"0","num_feature":"6","num_nodes":"25","size_leaf_vector":"1"}},{"base_weights":[1.0818258E2,-1.0245898E3,3.285582E3,-2.978201E3,-2.284042E2,4.0157588E3,1.4586446E2,-2.101073E3,-4.2360904E2,8.3731744E2,-1.3847468E3,4.840617E3,2.4827158E3,-9.78042E1,6.7135155E1,-2.2872893E2,-2.6346192E0,-6.995574E1,2.304416E2,-2.0569987E2,2.5361412E1,9.455908E1,5.1683325E2,1.30293455E1,2.8001627E2],"categories":[],"categories_nodes":[],"categories_segments":[],"categories_sizes":[],"default_left":[0,0,0,0,0,0,0,0,0,0,0,0,0,0,0,0,0,0,0,0,0,0,0,0,0],"id":4,"left_children":[1,3,5,7,9,11,13,15,-1,17,19,21,23,-1,-1,-1,-1,-1,-1,-1,-1,-1,-1,-1,-1],"loss_changes":[2.877087E8,9.109058E7,4.7557776E7,9.856256E6,5.4150068E7,9.47936E6,3.6096018E6,4.575916E6,0E0,5.347125E7,2.36509E7,7.87744E6,5.609312E6,0E0,0E0,0E0,0E0,0E0,0E0,0E0,0E0,0E0,0E0,0E0,0E0],"parents":[2147483647,0,0,1,1,2,2,3,3,4,4,5,5,6,6,7,7,9,9,10,10,11,11,12,12],"right_children":[2,4,6,8,10,12,14,16,-1,18,20,22,24,-1,-1,-1,-1,-1,-1,-1,-1,-1,-1,-1,-1],"split_conditions":[1.701E4,1.0792E4,2.0379E4,1.276E4,1.3791E4,1.3401E4,1.8581E4,1.6611E4,-4.2360904E2,1.2181E4,1.9933E4,1.0947E4,1.3754E4,-9.78042E1,6.7135155E1,-2.2872893E2,-2.6346192E0,-6.995574E1,2.304416E2,-2.0569987E2,2.5361412E1,9.455908E1,5.1683325E2,1.30293455E1,2.8001627E2],"split_indices":[0,0,2,2,1,2,0,3,0,4,4,2,2,0,0,0,0,0,0,0,0,0,0,0,0],"split_type":[0,0,0,0,0,0,0,0,0,0,0,0,0,0,0,0,0,0,0,0,0,0,0,0,0],"sum_hessian":[7.8E1,5.8E1,2E1,1.6E1,4.2E1,1.6E1,4E0,1.1E1,5E0,2.2E1,2E1,9E0,7E0,1E0,3E0,1E1,1E0,1.1E1,1.1E1,1.4E1,6E0,1E0,8E0,1E0,6E0],"tree_param":{"num_deleted":"0","num_feature":"6","num_nodes":"25","size_leaf_vector":"1"}},{"base_weights":[6.10229E1,-9.624105E2,3.0771003E3,-2.6368252E3,-1.6298888E2,3.8072678E3,1.2514453E2,-3.1162378E3,-6.712223E2,2.930973E2,-1.4335054E3,4.313876E3,1.2089739E3,-9.291396E1,6.2100048E1,-9.5179756E1,-3.3760135E2,-7.3514323E0,-1.0451894E2,-1.1528759E2,1.551715E2,-2.1499144E2,-1.43831835E1,1.06334915E2,4.496141E2,1.2377881E1,1.529446E2],"categories":[],"categories_nodes":[],"categories_segments":[],"categories_sizes":[],"default_left":[0,0,0,0,0,0,0,0,0,0,0,0,0,0,0,0,0,0,0,0,0,0,0,0,0,0,0],"id":5,"left_children":[1,3,5,7,9,11,13,15,17,19,21,23,25,-1,-1,-1,-1,-1,-1,-1,-1,-1,-1,-1,-1,-1,-1],"loss_changes":[2.4372829E8,7.8545464E7,4.2631984E7,1.581268E7,2.4178222E7,1.5845712E7,3.1908618E6,5.220752E6,1.0407795E6,5.820668E7,9.854044E6,2.920976E6,1.2017855E6,0E0,0E0,0E0,0E0,0E0,0E0,0E0,0E0,0E0,0E0,0E0,0E0,0E0,0E0],"parents":[2147483647,0,0,1,1,2,2,3,3,4,4,5,5,6,6,7,7,8,8,9,9,10,10,11,11,12,12],"right_children":[2,4,6,8,10,12,14,16,18,20,22,24,26,-1,-1,-1,-1,-1,-1,-1,-1,-1,-1,-1,-1,-1,-1],"split_conditions":[1.701E4,1.0792E4,2.0379E4,1.5388E4,1.701E4,1.7816E4,1.8581E4,8.251E3,2.0249E4,1.2181E4,1.5189E4,1.0677E4,1.999E4,-9.291396E1,6.2100048E1,-9.5179756E1,-3.3760135E2,-7.3514323E0,-1.0451894E2,-1.1528759E2,1.551715E2,-2.1499144E2,-1.43831835E1,1.06334915E2,4.496141E2,1.2377881E1,1.529446E2],"split_indices":[0,0,2,5,2,5,0,5,4,4,0,5,5,0,0,0,0,0,0,0,0,0,0,0,0,0,0],"split_type":[0,0,0,0,0,0,0,0,0,0,0,0,0,0,0,0,0,0,0,0,0,0,0,0,0,0,0],"sum_hessian":[7.7E1,5.8E1,1.9E1,1.8E1,4E1,1.5E1,4E0,1.4E1,4E0,3E1,1E1,1.2E1,3E0,1E0,3E0,2E0,1.2E1,2E0,2E0,1.4E1,1.6E1,6E0,4E0,1E0,1.1E1,1E0,2E0],"tree_param":{"num_deleted":"0","num_feature":"6","num_nodes":"27","size_leaf_vector":"1"}},{"base_weights":[-1.1881344E2,-1.0966968E3,2.8210898E3,-2.541203E3,-3.6484262E2,3.598875E3,9.7361885E1,-1.5668392E3,-3.1073909E3,-9.810916E2,8.0568E2,4.1521954E2,2.2613025E3,-1.8670773E2,-3.440039E1,-6.24854E1,-3.2931592E2,9.886914E0,-1.6622464E2,-7.296283E1,1.4927661E2,6.614629E1,2.4489778E2],"categories":[],"categories_nodes":[],"categories_segments":[],"categories_sizes":[],"default_left":[0,0,0,0,0,0,0,0,0,0,0,0,0,0,0,0,0,0,0,0,0,0,0],"id":6,"left_children":[1,3,5,7,9,11,-1,13,15,17,19,-1,21,-1,-1,-1,-1,-1,-1,-1,-1,-1,-1],"loss_changes":[2.1871005E8,5.9331416E7,2.379784E7,5.613008E6,2.8922448E7,2.32E5,0E0,2.661992E6,3.015208E6,1.9290476E7,1.5857613E7,0E0,1.81596E5,0E0,0E0,0E0,0E0,0E0,0E0,0E0,0E0,0E0,0E0],"parents":[2147483647,0,0,1,1,2,2,3,3,4,4,5,5,7,7,8,8,9,9,10,10,12,12],"right_children":[2,4,6,8,10,12,-1,14,16,18,20,-1,22,-1,-1,-1,-1,-1,-1,-1,-1,-1,-1],"split_conditions":[1.701E4,1.0792E4,1.3401E4,9.364E3,1.5388E4,1.3401E4,9.7361885E1,1.3932E4,8.251E3,1.2143E4,1.0862E4,4.1521954E2,1.713E4,-1.8670773E2,-3.440039E1,-6.24854E1,-3.2931592E2,9.886914E0,-1.6622464E2,-7.296283E1,1.4927661E2,6.614629E1,2.4489778E2],"split_indices":[0,0,3,1,4,2,0,3,4,2,1,0,1,0,0,0,0,0,0,0,0,0,0],"split_type":[0,0,0,0,0,0,0,0,0,0,0,0,0,0,0,0,0,0,0,0,0,0,0],"sum_hessian":[7.4E1,5.6E1,1.8E1,1.8E1,3.8E1,1.2E1,6E0,8E0,1E1,2.5E1,1.3E1,7E0,5E0,6E0,2E0,1E0,9E0,1E1,1.5E1,4E0,9E0,1E0,4E0],"tree_param":{"num_deleted":"0","num_feature":"6","num_nodes":"23","size_leaf_vector":"1"}},{"base_weights":[3.0063748E2,-5.592573E2,2.6834683E3,-1.9740631E3,1.6368053E2,1.2619484E3,3.8366415E2,-2.5225923E3,-4.5657242E2,9.969618E2,-9.4023114E2,2.0794324E3,2.8577734E1,-7.638724E1,-2.772917E2,5.0895184E-1,-6.886758E1,2.081127E2,-1.0249474E2,-1.8099246E2,-6.2700195E0,6.2838966E1,2.2439632E2,-9.3136375E1,5.0140408E1],"categories":[],"categories_nodes":[],"categories_segments":[],"categories_sizes":[],"default_left":[0,0,0,0,0,0,0,0,0,0,0,0,0,0,0,0,0,0,0,0,0,0,0,0,0],"id":7,"left_children":[1,3,5,7,9,11,-1,13,15,17,19,21,23,-1,-1,-1,-1,-1,-1,-1,-1,-1,-1,-1,-1],"loss_changes":[1.469786E8,5.45324E7,2.6304272E7,1.3831232E7,3.4052656E7,1.0023182E7,0E0,3.605112E6,6.4642475E5,4.8166796E7,1.2097444E7,2.2366E4,2.7364175E6,0E0,0E0,0E0,0E0,0E0,0E0,0E0,0E0,0E0,0E0,0E0,0E0],"parents":[2147483647,0,0,1,1,2,2,3,3,4,4,5,5,7,7,8,8,9,9,10,10,11,11,12,12],"right_children":[2,4,6,8,10,12,-1,14,16,18,20,22,24,-1,-1,-1,-1,-1,-1,-1,-1,-1,-1,-1,-1],"split_conditions":[1.701E4,1.0895E4,1.2759E4,1.5388E4,1.3754E4,1.3401E4,3.8366415E2,8.251E3,8.816E3,1.3791E4,1.2181E4,8.997E3,1.8581E4,-7.638724E1,-2.772917E2,5.0895184E-1,-6.886758E1,2.081127E2,-1.0249474E2,-1.8099246E2,-6.2700195E0,6.2838966E1,2.2439632E2,-9.3136375E1,5.0140408E1],"split_indices":[0,0,5,5,5,3,0,5,1,1,3,5,0,0,0,0,0,0,0,0,0,0,0,0,0],"split_type":[0,0,0,0,0,0,0,0,0,0,0,0,0,0,0,0,0,0,0,0,0,0,0,0,0],"sum_hessian":[7E1,5.2E1,1.8E1,1.7E1,3.5E1,9E0,9E0,1.2E1,5E0,2E1,1.5E1,5E0,4E0,2E0,1E1,2E0,3E0,1.3E1,7E0,7E0,8E0,1E0,4E0,1E0,3E0],"tree_param":{"num_deleted":"0","num_feature":"6","num_nodes":"25","size_leaf_vector":"1"}},{"base_weights":[-3.483379E1,-1.4895657E3,1.311664E3,-2.3445508E3,-8.672028E2,4.4446588E2,2.8904272E3,-1.2584727E3,-3.13756E2,-3.1340973E2,-1.8663887E3,2.091242E3,-4.9510226E2,3.2627932E3,4.3748764E1,-1.4369952E2,-4.4072267E-1,-1.4667126E2,1.3789388E2,-2.1740886E2,1.43755865E1,-1.546582E1,2.6720493E2,-1.3312592E2,3.0694914E1,1.412769E2,3.7224936E2],"categories":[],"categories_nodes":[],"categories_segments":[],"categories_sizes":[],"default_left":[0,0,0,0,0,0,0,0,0,0,0,0,0,0,0,0,0,0,0,0,0,0,0,0,0,0,0],"id":8,"left_children":[1,3,5,7,9,11,13,15,-1,17,19,21,23,25,-1,-1,-1,-1,-1,-1,-1,-1,-1,-1,-1,-1,-1],"loss_changes":[1.5082208E8,1.7654904E7,5.347932E7,8.97052E6,1.2141926E7,4.2811356E7,1.136004E7,1.7847E6,0E0,3.3251154E7,5.260712E6,1.3457604E7,1.2480164E7,4.946456E6,0E0,0E0,0E0,0E0,0E0,0E0,0E0,0E0,0E0,0E0,0E0,0E0,0E0],"parents":[2147483647,0,0,1,1,2,2,3,3,4,4,5,5,6,6,7,7,9,9,10,10,11,11,12,12,13,13],"right_children":[2,4,6,8,10,12,14,16,-1,18,20,22,24,26,-1,-1,-1,-1,-1,-1,-1,-1,-1,-1,-1,-1,-1],"split_conditions":[1.276E4,1.0015E4,1.8944E4,9.364E3,1.5189E4,1.3754E4,2.0379E4,1.2181E4,-3.13756E2,1.2181E4,1.247E4,1.0862E4,1.5189E4,1.1143E4,4.3748764E1,-1.4369952E2,-4.4072267E-1,-1.4667126E2,1.3789388E2,-2.1740886E2,1.43755865E1,-1.546582E1,2.6720493E2,-1.3312592E2,3.0694914E1,1.412769E2,3.7224936E2],"split_indices":[0,0,0,1,2,1,2,2,0,3,0,1,0,3,0,0,0,0,0,0,0,0,0,0,0,0,0],"split_type":[0,0,0,0,0,0,0,0,0,0,0,0,0,0,0,0,0,0,0,0,0,0,0,0,0,0,0],"sum_hessian":[7.5E1,3.6E1,3.9E1,1.4E1,2.2E1,2.6E1,1.3E1,7E0,7E0,1.5E1,7E0,9E0,1.7E1,1.1E1,2E0,6E0,1E0,9E0,6E0,6E0,1E0,2E0,7E0,8E0,9E0,3E0,8E0],"tree_param":{"num_deleted":"0","num_feature":"6","num_nodes":"27","size_leaf_vector":"1"}},{"base_weights":[7.851142E1,-5.0424078E2,2.6536633E3,-1.3683999E3,2.9663843E2,2.99386E3,4.0832165E1,-1.5039484E3,1.2812524E2,7.488322E2,-6.7582477E2,7.048965E1,3.1378662E2,3.6631176E1,-1.7338365E2,-1.6317676E2,1.0532592E2,-1.1767574E2,-2.2146933E1],"categories":[],"categories_nodes":[],"categories_segments":[],"categories_sizes":[],"default_left":[0,0,0,0,0,0,0,0,0,0,0,0,0,0,0,0,0,0,0],"id":9,"left_children":[1,3,5,7,9,11,-1,13,-1,15,17,-1,-1,-1,-1,-1,-1,-1,-1],"loss_changes":[1.1388874E8,4.3315316E7,9.471552E6,1.270162E7,1.5017558E7,1.743632E6,0E0,1.3103692E7,0E0,1.8387208E7,2.243001E6,0E0,0E0,0E0,0E0,0E0,0E0,0E0,0E0],"parents":[2147483647,0,0,1,1,2,2,3,3,4,4,5,5,7,7,9,9,10,10],"right_children":[2,4,6,8,10,12,-1,14,-1,16,18,-1,-1,-1,-1,-1,-1,-1,-1],"split_conditions":[1.8944E4,1.247E4,2.0379E4,2.2015E4,1.701E4,1.0677E4,4.0832165E1,7.962E3,1.2812524E2,7.975E3,1.5189E4,7.048965E1,3.1378662E2,3.6631176E1,-1.7338365E2,-1.6317676E2,1.0532592E2,-1.1767574E2,-2.2146933E1],"split_indices":[0,0,2,4,2,5,0,5,0,2,0,0,0,0,0,0,0,0,0],"split_type":[0,0,0,0,0,0,0,0,0,0,0,0,0,0,0,0,0,0,0],"sum_hessian":[7.4E1,6.1E1,1.3E1,2.9E1,3.2E1,1.1E1,2E0,2.8E1,1E0,2.2E1,1E1,1E0,1E1,3E0,2.5E1,2E0,2E1,4E0,6E0],"tree_param":{"num_deleted":"0","num_feature":"6","num_nodes":"19","size_leaf_vector":"1"}},{"base_weights":[8.282324E0,-5.178916E2,2.3228955E3,-1.8946731E3,-7.580547E1,3.0974243E2,1.2580049E3,-2.1364873E3,-1.3464844E2,5.625802E2,-7.6222974E2,1.4867897E3,3.8110027E1,-2.5867628E1,-2.2610362E2,-2.8447754E1,8.250488E0,-6.918189E1,1.3411572E2,-2.1178194E2,-1.1739942E1,8.087466E1,1.8952507E2],"categories":[],"categories_nodes":[],"categories_segments":[],"categories_sizes":[],"default_left":[0,0,0,0,0,0,0,0,0,0,0,0,0,0,0,0,0,0,0,0,0,0,0],"id":10,"left_children":[1,3,5,7,9,-1,11,13,15,17,19,21,-1,-1,-1,-1,-1,-1,-1,-1,-1,-1,-1],"loss_changes":[9.863414E7,4.0027668E7,8.475248E6,6.521912E6,2.277719E7,0E0,1.038363E6,2.689436E6,1.2107844E5,2.7297288E7,2.16045E7,1.28948E5,0E0,0E0,0E0,0E0,0E0,0E0,0E0,0E0,0E0,0E0,0E0],"parents":[2147483647,0,0,1,1,2,2,3,3,4,4,6,6,7,7,8,8,9,9,10,10,11,11],"right_children":[2,4,6,8,10,-1,12,14,16,18,20,22,-1,-1,-1,-1,-1,-1,-1,-1,-1,-1,-1],"split_conditions":[1.8944E4,1.0015E4,1.3401E4,1.5388E4,1.3791E4,3.0974243E2,2.0379E4,7.237E3,7.049E3,1.0862E4,1.1143E4,2.2015E4,3.8110027E1,-2.5867628E1,-2.2610362E2,-2.8447754E1,8.250488E0,-6.918189E1,1.3411572E2,-2.1178194E2,-1.1739942E1,8.087466E1,1.8952507E2],"split_indices":[0,0,2,5,1,0,2,5,0,1,5,1,0,0,0,0,0,0,0,0,0,0,0],"split_type":[0,0,0,0,0,0,0,0,0,0,0,0,0,0,0,0,0,0,0,0,0,0,0],"sum_hessian":[7.9E1,6.5E1,1.4E1,1.5E1,5E1,7E0,7E0,1.3E1,2E0,2.6E1,2.4E1,5E0,2E0,1E0,1.2E1,1E0,1E0,1E1,1.6E1,7E0,1.7E1,3E0,2E0],"tree_param":{"num_deleted":"0","num_feature":"6","num_nodes":"23","size_leaf_vector":"1"}},{"base_weights":[5.098328E1,-5.4831714E2,1.7264753E3,-1.3656343E3,6.2710968E1,2.766981E3,8.0222314E2,3.2907202E2,-1.6234053E3,7.474335E2,-7.115213E2,5.1918556E1,2.9830573E2,1.3831771E3,1.8965932E2,-2.4574268E1,6.0259113E1,-1.9801591E2,-4.014938E1,1.3888124E2,-7.667931E1,-1.2118095E2,3.242604E1,7.480904E1,1.7689005E2,-6.4549515E1,6.528201E1],"categories":[],"categories_nodes":[],"categories_segments":[],"categories_sizes":[],"default_left":[0,0,0,0,0,0,0,0,0,0,0,0,0,0,0,0,0,0,0,0,0,0,0,0,0,0,0],"id":11,"left_children":[1,3,5,7,9,11,13,15,17,19,21,-1,-1,23,25,-1,-1,-1,-1,-1,-1,-1,-1,-1,-1,-1,-1],"loss_changes":[7.625589E7,2.8052246E7,1.7014056E7,1.1018524E7,1.8026246E7,2.822496E6,4.008124E6,7.769735E5,8.359336E6,1.8546408E7,8.683969E6,0E0,0E0,1.46509E5,3.129068E6,0E0,0E0,0E0,0E0,0E0,0E0,0E0,0E0,0E0,0E0,0E0,0E0],"parents":[2147483647,0,0,1,1,2,2,3,3,4,4,5,5,6,6,7,7,8,8,9,9,10,10,13,13,14,14],"right_children":[2,4,6,8,10,12,14,16,18,20,22,-1,-1,24,26,-1,-1,-1,-1,-1,-1,-1,-1,-1,-1,-1,-1],"split_conditions":[1.701E4,1.1608E4,1.3401E4,7.962E3,1.3754E4,1.0947E4,1.3401E4,9.498E3,1.5388E4,1.701E4,2.0128E4,5.1918556E1,2.9830573E2,1.9933E4,1.5175E4,-2.4574268E1,6.0259113E1,-1.9801591E2,-4.014938E1,1.3888124E2,-7.667931E1,-1.2118095E2,3.242604E1,7.480904E1,1.7689005E2,-6.4549515E1,6.528201E1],"split_indices":[0,0,2,5,5,2,3,0,5,2,5,0,0,2,3,0,0,0,0,0,0,0,0,0,0,0,0],"split_type":[0,0,0,0,0,0,0,0,0,0,0,0,0,0,0,0,0,0,0,0,0,0,0,0,0,0,0],"sum_hessian":[7.4E1,5.5E1,1.9E1,2.3E1,3.2E1,8E0,1.1E1,3E0,2E1,1.7E1,1.5E1,1E0,7E0,5E0,6E0,1E0,2E0,1.5E1,5E0,1.2E1,5E0,1E1,5E0,3E0,2E0,2E0,4E0],"tree_param":{"num_deleted":"0","num_feature":"6","num_nodes":"27","size_leaf_vector":"1"}},{"base_weights":[-6.906843E1,-1.0156308E3,7.821816E2,1.0901157E3,-1.2471106E3,3.0249588E2,1.718284E3,1.7223974E1,1.3386612E2,-1.3675422E3,1.2431348E2,2.2797761E3,-3.9654827E1,1.9455616E3,3.1217188E1,-1.0278689E2,-2.2156194E2,2.5872983E2,6.78605E1,-1.4488383E2,2.3064941E1,6.700365E1,2.1545633E2],"categories":[],"categories_nodes":[],"categories_segments":[],"categories_sizes":[],"default_left":[0,0,0,0,0,0,0,0,0,0,0,0,0,0,0,0,0,0,0,0,0,0,0],"id":12,"left_children":[1,3,5,7,9,11,13,-1,-1,15,-1,17,19,21,-1,-1,-1,-1,-1,-1,-1,-1,-1],"loss_changes":[5.9614976E7,1.8419816E7,1.6992592E7,6.81965E5,1.1296976E7,1.8356654E7,3.547156E6,0E0,0E0,6.65278E6,0E0,2.1383E5,9.475973E6,1.48882E6,0E0,0E0,0E0,0E0,0E0,0E0,0E0,0E0,0E0],"parents":[2147483647,0,0,1,1,2,2,3,3,4,4,5,5,6,6,9,9,11,11,12,12,13,13],"right_children":[2,4,6,8,10,12,14,-1,-1,16,-1,18,20,22,-1,-1,-1,-1,-1,-1,-1,-1,-1],"split_conditions":[1.276E4,7.975E3,1.8944E4,1.2267E4,2.2135E4,1.3754E4,2.0379E4,1.7223974E1,1.3386612E2,1.5189E4,1.2431348E2,1.3401E4,1.3932E4,1.0677E4,3.1217188E1,-1.0278689E2,-2.2156194E2,2.5872983E2,6.78605E1,-1.4488383E2,2.3064941E1,6.700365E1,2.1545633E2],"split_indices":[0,5,0,3,4,0,2,0,0,2,0,0,0,5,0,0,0,0,0,0,0,0,0],"split_type":[0,0,0,0,0,0,0,0,0,0,0,0,0,0,0,0,0,0,0,0,0,0,0],"sum_hessian":[7.2E1,3.4E1,3.8E1,3E0,3.1E1,2.6E1,1.2E1,1E0,2E0,3E1,1E0,3E0,2.3E1,1E1,2E0,2.3E1,7E0,2E0,1E0,3E0,2E1,2E0,8E0],"tree_param":{"num_deleted":"0","num_feature":"6","num_nodes":"23","size_leaf_vector":"1"}},{"base_weights":[1.904222E1,-4.9043054E2,1.4928296E3,-1.4338313E2,-1.3273972E3,4.2808356E2,2.2282737E3,-4.979206E2,1.3370068E3,-1.7975724E3,6.650273E1,-7.624365E1,6.722031E2,2.5456528E3,1.0364468E2,-9.1541245E1,3.0897446E1,-6.8698974E0,2.1941702E2,-1.9178802E2,-2.3709278E1,4.6427994E1,-3.5344204E1,8.758994E1,3.748055E1,2.6915506E2,7.621846E1],"categories":[],"categories_nodes":[],"categories_segments":[],"categories_sizes":[],"default_left":[0,0,0,0,0,0,0,0,0,0,0,0,0,0,0,0,0,0,0,0,0,0,0,0,0,0,0],"id":13,"left_children":[1,3,5,7,9,11,13,15,17,19,21,-1,23,25,-1,-1,-1,-1,-1,-1,-1,-1,-1,-1,-1,-1,-1],"loss_changes":[5.5544504E7,1.5785364E7,1.3924272E7,2.1659872E7,1.0605576E7,3.1281752E6,1.522444E6,1.1399618E7,9.790092E6,1.79814E6,9.9931844E5,0E0,1.5633875E5,3.0172E4,0E0,0E0,0E0,0E0,0E0,0E0,0E0,0E0,0E0,0E0,0E0,0E0,0E0],"parents":[2147483647,0,0,1,1,2,2,3,3,4,4,5,5,6,6,7,7,8,8,9,9,10,10,12,12,13,13],"right_children":[2,4,6,8,10,12,14,16,18,20,22,-1,24,26,-1,-1,-1,-1,-1,-1,-1,-1,-1,-1,-1,-1,-1],"split_conditions":[1.701E4,1.5926E4,1.2759E4,1.5936E4,1.5189E4,1.8581E4,1.7697E4,1.276E4,1.0862E4,2.0128E4,1.5926E4,-7.624365E1,1.5388E4,1.3401E4,1.0364468E2,-9.1541245E1,3.0897446E1,-6.8698974E0,2.1941702E2,-1.9178802E2,-2.3709278E1,4.6427994E1,-3.5344204E1,8.758994E1,3.748055E1,2.6915506E2,7.621846E1],"split_indices":[0,2,5,3,0,0,5,0,0,5,0,0,2,2,0,0,0,0,0,0,0,0,0,0,0,0,0],"split_type":[0,0,0,0,0,0,0,0,0,0,0,0,0,0,0,0,0,0,0,0,0,0,0,0,0,0,0],"sum_hessian":[7.2E1,5.4E1,1.8E1,3.9E1,1.5E1,8E0,1E1,3.2E1,7E0,1.1E1,4E0,1E0,7E0,7E0,3E0,2.1E1,1.1E1,3E0,4E0,1E1,1E0,2E0,2E0,3E0,4E0,6E0,1E0],"tree_param":{"num_deleted":"0","num_feature":"6","num_nodes":"27","size_leaf_vector":"1"}},{"base_weights":[3.5715588E1,-3.9822452E2,1.4319829E3,-1.3732462E3,-5.6780228E1,1.9541595E3,8.1882556E2,-5.530026E2,-1.8586304E3,5.8912787E2,-7.9225714E2,4.298711E1,2.0909618E2,-2.1614355E1,9.5783813E2,-6.962642E1,1.53283205E1,9.782813E0,-2.1154163E2,-1.6145283E1,1.353163E2,-9.38997E1,1.0712695E2,1.2335543E2,3.0480421E1],"categories":[],"categories_nodes":[],"categories_segments":[],"categories_sizes":[],"default_left":[0,0,0,0,0,0,0,0,0,0,0,0,0,0,0,0,0,0,0,0,0,0,0,0,0],"id":14,"left_children":[1,3,5,7,9,11,13,15,17,19,21,-1,-1,-1,23,-1,-1,-1,-1,-1,-1,-1,-1,-1,-1],"loss_changes":[4.6012476E7,1.9231128E7,4.16306E6,4.944174E6,2.1368964E7,9.77888E5,1.645767E6,8.1501075E5,4.728464E6,1.3981754E7,6.748441E6,0E0,0E0,0E0,1.2444755E6,0E0,0E0,0E0,0E0,0E0,0E0,0E0,0E0,0E0,0E0],"parents":[2147483647,0,0,1,1,2,2,3,3,4,4,5,5,6,6,7,7,8,8,9,9,10,10,14,14],"right_children":[2,4,6,8,10,12,14,16,18,20,22,-1,-1,-1,24,-1,-1,-1,-1,-1,-1,-1,-1,-1,-1],"split_conditions":[1.701E4,9.545E3,1.3401E4,9.364E3,1.3791E4,1.0947E4,1.3754E4,1.2181E4,8.251E3,1.2181E4,2.3541E4,4.298711E1,2.0909618E2,-2.1614355E1,2.0379E4,-6.962642E1,1.53283205E1,9.782813E0,-2.1154163E2,-1.6145283E1,1.353163E2,-9.38997E1,1.0712695E2,1.2335543E2,3.0480421E1],"split_indices":[0,0,2,1,1,2,2,2,4,4,4,0,0,0,2,0,0,0,0,0,0,0,0,0,0],"split_type":[0,0,0,0,0,0,0,0,0,0,0,0,0,0,0,0,0,0,0,0,0,0,0,0,0],"sum_hessian":[7.4E1,5.7E1,1.7E1,1.4E1,4.3E1,8E0,9E0,6E0,8E0,2.3E1,2E1,1E0,7E0,1E0,8E0,5E0,1E0,1E0,7E0,1.2E1,1.1E1,1.9E1,1E0,5E0,3E0],"tree_param":{"num_deleted":"0","num_feature":"6","num_nodes":"25","size_leaf_vector":"1"}},{"base_weights":[8.388892E1,-2.1452368E2,1.5694989E3,-6.4847644E2,2.2592981E2,1.787757E3,2.460534E1,-9.4777924E2,2.5497308E2,-1.7818755E2,3.4435733E2,6.962554E1,2.1100381E2,3.3120964E1,-1.07339615E2,-2.6633886E1,2.2127344E2,1.628247E2,-1.4549805E0],"categories":[],"categories_nodes":[],"categories_segments":[],"categories_sizes":[],"default_left":[0,0,0,0,0,0,0,0,0,0,0,0,0,0,0,0,0,0,0],"id":15,"left_children":[1,3,5,7,9,11,-1,13,15,-1,17,-1,-1,-1,-1,-1,-1,-1,-1],"loss_changes":[3.44727E7,1.257035E7,3.315202E6,9.165022E6,8.460323E6,2.400348E6,0E0,4.372082E6,9.774776E6,0E0,1.4769201E7,0E0,0E0,0E0,0E0,0E0,0E0,0E0,0E0],"parents":[2147483647,0,0,1,1,2,2,3,3,4,4,5,5,7,7,8,8,10,10],"right_children":[2,4,6,8,10,12,-1,14,16,-1,18,-1,-1,-1,-1,-1,-1,-1,-1],"split_conditions":[1.8944E4,1.247E4,2.0379E4,1.5936E4,7.962E3,1.1143E4,2.460534E1,7.962E3,1.1608E4,-1.7818755E2,1.3754E4,6.962554E1,2.1100381E2,3.3120964E1,-1.07339615E2,-2.6633886E1,2.2127344E2,1.628247E2,-1.4549805E0],"split_indices":[0,0,2,4,2,3,0,5,0,0,0,0,0,0,0,0,0,0,0],"split_type":[0,0,0,0,0,0,0,0,0,0,0,0,0,0,0,0,0,0,0],"sum_hessian":[7.6E1,6.4E1,1.2E1,3.2E1,3.2E1,1E1,2E0,2.4E1,8E0,1E0,3.1E1,3E0,7E0,2E0,2.2E1,7E0,1E0,6E0,2.5E1],"tree_param":{"num_deleted":"0","num_feature":"6","num_nodes":"19","size_leaf_vector":"1"}},{"base_weights":[-8.787923E0,-6.725443E2,7.12113E2,-1.2992462E3,-2.5283293E2,1.621774E3,1.00868965E2,-5.795155E2,-1.8565712E2,-6.7539575E2,4.0629462E2,-3.3387306E1,2.2871772E3,1.7475772E2,-1.5118071E2,-7.765925E1,7.8102213E-1,5.8219028E0,-1.1709411E2,1.3073232E2,-1.27207886E2,-8.516431E1,3.840874E1,2.4195409E2,5.4795315E1,-6.98749E1,7.5751526E1],"categories":[],"categories_nodes":[],"categories_segments":[],"categories_sizes":[],"default_left":[0,0,0,0,0,0,0,0,0,0,0,0,0,0,0,0,0,0,0,0,0,0,0,0,0,0,0],"id":16,"left_children":[1,3,5,7,9,11,13,15,-1,17,19,21,23,-1,25,-1,-1,-1,-1,-1,-1,-1,-1,-1,-1,-1,-1],"loss_changes":[3.493111E7,9.666798E6,1.9297282E7,4.940946E6,6.9589575E6,1.549526E7,9.39535E6,9.3205225E5,0E0,5.5212615E6,1.678564E7,2.0351109E6,9.763E5,0E0,1.0480774E7,0E0,0E0,0E0,0E0,0E0,0E0,0E0,0E0,0E0,0E0,0E0,0E0],"parents":[2147483647,0,0,1,1,2,2,3,3,4,4,5,5,6,6,7,7,9,9,10,10,11,11,12,12,14,14],"right_children":[2,4,6,8,10,12,14,16,-1,18,20,22,24,-1,26,-1,-1,-1,-1,-1,-1,-1,-1,-1,-1,-1,-1],"split_conditions":[1.276E4,1.0015E4,1.3401E4,9.364E3,1.4767E4,1.0792E4,1.3754E4,8.642E3,-1.8565712E2,1.1143E4,1.7816E4,1.0862E4,2.0128E4,1.7475772E2,1.8581E4,-7.765925E1,7.8102213E-1,5.8219028E0,-1.1709411E2,1.3073232E2,-1.27207886E2,-8.516431E1,3.840874E1,2.4195409E2,5.4795315E1,-6.98749E1,7.5751526E1],"split_indices":[0,0,2,1,3,2,1,1,0,0,2,1,1,0,0,0,0,0,0,0,0,0,0,0,0,0,0],"split_type":[0,0,0,0,0,0,0,0,0,0,0,0,0,0,0,0,0,0,0,0,0,0,0,0,0,0,0],"sum_hessian":[7.1E1,3.7E1,3.4E1,1.4E1,2.3E1,1.3E1,2.1E1,7E0,7E0,1.4E1,9E0,4E0,9E0,2E0,1.9E1,5E0,2E0,6E0,8E0,6E0,3E0,1E0,3E0,8E0,1E0,1.2E1,7E0],"tree_param":{"num_deleted":"0","num_feature":"6","num_nodes":"27","size_leaf_vector":"1"}},{"base_weights":[-2.2474356E1,-5.6831195E2,5.2397064E2,-9.0173926E2,-7.4329895E1,1.4592399E3,1.2352872E2,-2.3583148E2,-1.2654128E3,8.806864E2,-9.1497437E2,-3.771338E1,2.0253115E3,-1.0035239E3,5.6817334E2,-6.727917E1,4.7856667E1,-5.106599E1,-1.9472145E2,-1.700672E1,1.9739568E2,-1.1215242E2,3.6871193E1,4.890895E1,-8.0906105E1,2.1596492E2,5.4247364E1,5.354414E1,-1.2998679E2,2.7850645E1,1.6572144E2],"categories":[],"categories_nodes":[],"categories_segments":[],"categories_sizes":[],"default_left":[0,0,0,0,0,0,0,0,0,0,0,0,0,0,0,0,0,0,0,0,0,0,0,0,0,0,0,0,0,0,0],"id":17,"left_children":[1,3,5,7,9,11,13,15,17,19,21,23,25,27,29,-1,-1,-1,-1,-1,-1,-1,-1,-1,-1,-1,-1,-1,-1,-1,-1],"loss_changes":[2.2071506E7,6.027136E6,1.367702E7,5.029382E6,1.3651073E7,9.397592E6,1.4100899E7,3.1314475E6,6.20992E6,9.525768E6,2.7998255E6,2.021096E6,4.22056E5,4.344506E6,5.847638E6,0E0,0E0,0E0,0E0,0E0,0E0,0E0,0E0,0E0,0E0,0E0,0E0,0E0,0E0,0E0,0E0],"parents":[2147483647,0,0,1,1,2,2,3,3,4,4,5,5,6,6,7,7,8,8,9,9,10,10,11,11,12,12,13,13,14,14],"right_children":[2,4,6,8,10,12,14,16,18,20,22,24,26,28,30,-1,-1,-1,-1,-1,-1,-1,-1,-1,-1,-1,-1,-1,-1,-1,-1],"split_conditions":[1.276E4,1.2181E4,1.3754E4,1.0862E4,1.52E4,1.0965E4,1.5189E4,1.0895E4,9.364E3,1.4405E4,1.247E4,1.247E4,1.2965E4,1.3754E4,2.2135E4,-6.727917E1,4.7856667E1,-5.106599E1,-1.9472145E2,-1.700672E1,1.9739568E2,-1.1215242E2,3.6871193E1,4.890895E1,-8.0906105E1,2.1596492E2,5.4247364E1,5.354414E1,-1.2998679E2,2.7850645E1,1.6572144E2],"split_indices":[0,1,1,4,2,1,0,0,1,3,0,3,1,0,0,0,0,0,0,0,0,0,0,0,0,0,0,0,0,0,0],"split_type":[0,0,0,0,0,0,0,0,0,0,0,0,0,0,0,0,0,0,0,0,0,0,0,0,0,0,0,0,0,0,0],"sum_hessian":[7.2E1,3.6E1,3.6E1,2.1E1,1.5E1,1E1,2.6E1,8E0,1.3E1,7E0,8E0,3E0,7E0,7E0,1.9E1,5E0,3E0,7E0,6E0,4E0,3E0,7E0,1E0,2E0,1E0,6E0,1E0,1E0,6E0,1.6E1,3E0],"tree_param":{"num_deleted":"0","num_feature":"6","num_nodes":"31","size_leaf_vector":"1"}},{"base_weights":[-3.0880087E1,-4.080668E2,9.702087E2,-1.0269698E3,-1.8124905E2,1.6250267E3,3.9824448E2,-1.947718E2,-1.1494386E3,8.978526E1,-6.910117E2,1.7187312E3,4.376953E1,6.8066895E2,-1.332836E2,-5.400962E1,2.4793848E1,-4.0624172E1,-1.352033E2,-4.1130924E1,8.560418E1,-1.5175078E2,-6.3235354E0,4.9569042E1,1.8226384E2,-1.8359669E1,8.303636E1,-7.1781494E1,1.9230299E1],"categories":[],"categories_nodes":[],"categories_segments":[],"categories_sizes":[],"default_left":[0,0,0,0,0,0,0,0,0,0,0,0,0,0,0,0,0,0,0,0,0,0,0,0,0,0,0,0,0],"id":18,"left_children":[1,3,5,7,9,11,13,15,17,19,21,23,-1,25,27,-1,-1,-1,-1,-1,-1,-1,-1,-1,-1,-1,-1,-1,-1],"loss_changes":[2.7582922E7,7.253907E6,6.843492E6,1.202977E6,5.588569E6,2.49044E5,1.8921204E6,5.925466E5,1.257558E6,1.0719203E7,7.1680045E6,1.13198E5,0E0,1.1874592E6,1.0896156E6,0E0,0E0,0E0,0E0,0E0,0E0,0E0,0E0,0E0,0E0,0E0,0E0,0E0,0E0],"parents":[2147483647,0,0,1,1,2,2,3,3,4,4,5,5,6,6,7,7,8,8,9,9,10,10,11,11,13,13,14,14],"right_children":[2,4,6,8,10,12,14,16,18,20,22,24,-1,26,28,-1,-1,-1,-1,-1,-1,-1,-1,-1,-1,-1,-1,-1,-1],"split_conditions":[1.701E4,1.0015E4,1.3401E4,8.251E3,1.5926E4,1.7697E4,2.0379E4,7.61E3,7.962E3,1.2181E4,1.2628E4,1.2267E4,4.376953E1,1.3754E4,1.8581E4,-5.400962E1,2.4793848E1,-4.0624172E1,-1.352033E2,-4.1130924E1,8.560418E1,-1.5175078E2,-6.3235354E0,4.9569042E1,1.8226384E2,-1.8359669E1,8.303636E1,-7.1781494E1,1.9230299E1],"split_indices":[0,0,2,4,2,5,2,0,0,3,5,5,0,2,0,0,0,0,0,0,0,0,0,0,0,0,0,0,0],"split_type":[0,0,0,0,0,0,0,0,0,0,0,0,0,0,0,0,0,0,0,0,0,0,0,0,0,0,0,0,0],"sum_hessian":[7.1E1,5.2E1,1.9E1,1.3E1,3.9E1,8E0,1.1E1,2E0,1.1E1,2.6E1,1.3E1,7E0,1E0,7E0,4E0,1E0,1E0,3E0,8E0,1.6E1,1E1,5E0,8E0,1E0,6E0,1E0,6E0,1E0,3E0],"tree_param":{"num_deleted":"0","num_feature":"6","num_nodes":"29","size_leaf_vector":"1"}},{"base_weights":[4.6394573E1,-5.712575E2,5.70239E2,6.362824E2,-7.534723E2,1.4534103E3,1.851254E2,-3.7973633E0,8.143398E1,-1.2943818E3,-3.7218872E2,1.5845059E2,2.0810837E3,-9.5884796E2,5.2524225E2,-5.8458008E1,-1.5762102E2,-9.417216E1,7.386849E1,6.037683E1,-8.1141014E1,2.4238762E2,7.0180405E1,-1.4989465E2,2.609323E1,3.375985E1,1.663668E2],"categories":[],"categories_nodes":[],"categories_segments":[],"categories_sizes":[],"default_left":[0,0,0,0,0,0,0,0,0,0,0,0,0,0,0,0,0,0,0,0,0,0,0,0,0,0,0],"id":19,"left_children":[1,3,5,7,9,11,13,-1,-1,15,17,19,21,23,25,-1,-1,-1,-1,-1,-1,-1,-1,-1,-1,-1,-1],"loss_changes":[2.3945166E7,7.960494E6,1.3335788E7,6.312049E5,5.705442E6,9.423992E6,1.1787081E7,0E0,0E0,1.479086E6,1.2716535E7,2.6493845E6,2.081372E6,5.0027345E6,4.351574E6,0E0,0E0,0E0,0E0,0E0,0E0,0E0,0E0,0E0,0E0,0E0,0E0],"parents":[2147483647,0,0,1,1,2,2,3,3,4,4,5,5,6,6,9,9,10,10,11,11,12,12,13,13,14,14],"right_children":[2,4,6,8,10,12,14,-1,-1,16,18,20,22,24,26,-1,-1,-1,-1,-1,-1,-1,-1,-1,-1,-1,-1],"split_conditions":[1.276E4,7.975E3,1.3754E4,9.498E3,1.2143E4,1.0792E4,1.5189E4,-3.7973633E0,8.143398E1,9.364E3,1.2181E4,1.247E4,1.7697E4,2.0128E4,2.3125E4,-5.8458008E1,-1.5762102E2,-9.417216E1,7.386849E1,6.037683E1,-8.1141014E1,2.4238762E2,7.0180405E1,-1.4989465E2,2.609323E1,3.375985E1,1.663668E2],"split_indices":[0,5,1,0,5,2,0,0,0,5,1,3,5,5,0,0,0,0,0,0,0,0,0,0,0,0,0],"split_type":[0,0,0,0,0,0,0,0,0,0,0,0,0,0,0,0,0,0,0,0,0,0,0,0,0,0,0],"sum_hessian":[7.2E1,3.3E1,3.9E1,4E0,2.9E1,1.1E1,2.8E1,1E0,3E0,1.1E1,1.8E1,4E0,7E0,6E0,2.2E1,4E0,7E0,1.2E1,6E0,3E0,1E0,5E0,2E0,4E0,2E0,2E1,2E0],"tree_param":{"num_deleted":"0","num_feature":"6","num_nodes":"27","size_leaf_vector":"1"}},{"base_weights":[8.544043E1,-4.459646E2,5.0620715E2,-2.1056944E2,-1.214102E3,1.2786239E3,1.4104448E2,-4.824308E2,1.1364789E3,-1.5216797E3,-5.261045E2,1.3845255E2,1.7208473E3,-6.1126166E2,5.283932E2,-1.493485E1,-8.624963E1,1.3045183E1,1.7636797E2,-4.1876564E1,-1.6927168E2,-7.0910487E0,-9.458433E1,5.584856E1,-7.7083984E1,1.9054276E2,6.550176E1,3.4020092E1,-1.01058525E2,3.3884144E1,1.5527565E2],"categories":[],"categories_nodes":[],"categories_segments":[],"categories_sizes":[],"default_left":[0,0,0,0,0,0,0,0,0,0,0,0,0,0,0,0,0,0,0,0,0,0,0,0,0,0,0,0,0,0,0],"id":20,"left_children":[1,3,5,7,9,11,13,15,17,19,21,23,25,27,29,-1,-1,-1,-1,-1,-1,-1,-1,-1,-1,-1,-1,-1,-1,-1,-1],"loss_changes":[1.7666358E7,6.0729015E6,1.2230199E7,1.0802162E7,8.9234E5,6.82069E6,9.356535E6,2.909422E6,2.9248295E6,2.34344E5,6.971801E5,2.3401672E6,7.19224E5,4.523157E6,3.5514285E6,0E0,0E0,0E0,0E0,0E0,0E0,0E0,0E0,0E0,0E0,0E0,0E0,0E0,0E0,0E0,0E0],"parents":[2147483647,0,0,1,1,2,2,3,3,4,4,5,5,6,6,7,7,8,8,9,9,10,10,11,11,12,12,13,13,14,14],"right_children":[2,4,6,8,10,12,14,16,18,20,22,24,26,28,30,-1,-1,-1,-1,-1,-1,-1,-1,-1,-1,-1,-1,-1,-1,-1,-1],"split_conditions":[1.247E4,1.52E4,1.3754E4,1.6611E4,1.2181E4,1.0792E4,1.5189E4,1.1738E4,1.0862E4,8.816E3,1.2268E4,1.247E4,1.7816E4,1.3754E4,2.3125E4,-1.493485E1,-8.624963E1,1.3045183E1,1.7636797E2,-4.1876564E1,-1.6927168E2,-7.0910487E0,-9.458433E1,5.584856E1,-7.7083984E1,1.9054276E2,6.550176E1,3.4020092E1,-1.01058525E2,3.3884144E1,1.5527565E2],"split_indices":[0,2,1,3,0,2,0,4,0,0,0,3,4,0,0,0,0,0,0,0,0,0,0,0,0,0,0,0,0,0,0],"split_type":[0,0,0,0,0,0,0,0,0,0,0,0,0,0,0,0,0,0,0,0,0,0,0,0,0,0,0,0,0,0,0],"sum_hessian":[7.7E1,3.4E1,4.3E1,2.7E1,7E0,1.3E1,3E1,2.3E1,4E0,4E0,3E0,4E0,9E0,1E1,2E1,1.3E1,1E1,2E0,2E0,1E0,3E0,2E0,1E0,3E0,1E0,7E0,2E0,3E0,7E0,1.8E1,2E0],"tree_param":{"num_deleted":"0","num_feature":"6","num_nodes":"31","size_leaf_vector":"1"}},{"base_weights":[-9.855597E1,-2.8281094E2,8.769956E2,-7.720332E2,-1.1384495E2,9.517681E2,2.7249024E0,-3.9596237E2,-1.3328242E3,-5.0329956E2,1.5867012E2,2.6879751E1,1.073673E2,-7.608917E1,1.9413126E1,-1.4402582E2,-3.9782715E1,-1.6224127E1,-1.272062E2,5.9726635E1,-5.124468E1],"categories":[],"categories_nodes":[],"categories_segments":[],"categories_sizes":[],"default_left":[0,0,0,0,0,0,0,0,0,0,0,0,0,0,0,0,0,0,0,0,0],"id":21,"left_children":[1,3,5,7,9,11,-1,13,15,17,19,-1,-1,-1,-1,-1,-1,-1,-1,-1,-1],"loss_changes":[1.3549539E7,5.1198085E6,7.36518E5,2.846607E6,5.1742065E6,6.27231E5,0E0,2.5164805E6,2.9728E4,5.037475E6,8.842199E6,0E0,0E0,0E0,0E0,0E0,0E0,0E0,0E0,0E0,0E0],"parents":[2147483647,0,0,1,1,2,2,3,3,4,4,5,5,7,7,8,8,9,9,10,10],"right_children":[2,4,6,8,10,12,-1,14,16,18,20,-1,-1,-1,-1,-1,-1,-1,-1,-1,-1],"split_conditions":[1.999E4,1.0015E4,2.0379E4,1.247E4,1.2181E4,1.0677E4,2.7249024E0,1.0015E4,1.6611E4,1.0965E4,1.6205E4,2.6879751E1,1.073673E2,-7.608917E1,1.9413126E1,-1.4402582E2,-3.9782715E1,-1.6224127E1,-1.272062E2,5.9726635E1,-5.124468E1],"split_indices":[0,0,2,2,4,5,0,2,2,4,2,0,0,0,0,0,0,0,0,0,0],"split_type":[0,0,0,0,0,0,0,0,0,0,0,0,0,0,0,0,0,0,0,0,0],"sum_hessian":[7.3E1,6.2E1,1.1E1,1.5E1,4.7E1,1E1,1E0,1E1,5E0,1.9E1,2.8E1,2E0,8E0,6E0,4E0,4E0,1E0,1.4E1,5E0,1.7E1,1.1E1],"tree_param":{"num_deleted":"0","num_feature":"6","num_nodes":"21","size_leaf_vector":"1"}},{"base_weights":[-1.3236369E1,-3.0139117E2,8.064266E2,-5.9573566E2,-6.3789284E1,1.273873E3,4.9269177E2,4.2010635E1,-9.1723444E2,1.75678E2,-2.4992441E2,4.4056057E1,1.519086E2,-1.8638021E1,5.873552E2,-5.1240112E1,4.046167E1,-2.6439137E1,-1.3956245E2,-3.902977E1,7.2498314E1,6.7604494E0,-9.556152E0,2.3709196E1,8.397259E1],"categories":[],"categories_nodes":[],"categories_segments":[],"categories_sizes":[],"default_left":[0,0,0,0,0,0,0,0,0,0,0,0,0,0,0,0,0,0,0,0,0,0,0,0,0],"id":22,"left_children":[1,3,5,7,9,11,13,15,17,-1,19,-1,-1,21,23,-1,-1,-1,-1,-1,-1,-1,-1,-1,-1],"loss_changes":[1.7248716E7,3.7385855E6,2.158802E6,4.959365E6,1.094409E7,7.61124E5,6.402025E5,2.0166236E6,4.628028E6,0E0,4.251638E6,0E0,0E0,2.6362617E4,7.7326525E5,0E0,0E0,0E0,0E0,0E0,0E0,0E0,0E0,0E0,0E0],"parents":[2147483647,0,0,1,1,2,2,3,3,4,4,5,5,6,6,7,7,8,8,10,10,13,13,14,14],"right_children":[2,4,6,8,10,12,14,16,18,-1,20,-1,-1,22,24,-1,-1,-1,-1,-1,-1,-1,-1,-1,-1],"split_conditions":[1.701E4,1.2181E4,1.2268E4,1.0583E4,1.2256E4,1.2267E4,1.2674E4,7.962E3,9.364E3,1.75678E2,2.0379E4,4.4056057E1,1.519086E2,1.9933E4,1.999E4,-5.1240112E1,4.046167E1,-2.6439137E1,-1.3956245E2,-3.902977E1,7.2498314E1,6.7604494E0,-9.556152E0,2.3709196E1,8.397259E1],"split_indices":[0,1,3,5,1,5,3,4,1,0,5,0,0,0,0,0,0,0,0,0,0,0,0,0,0],"split_type":[0,0,0,0,0,0,0,0,0,0,0,0,0,0,0,0,0,0,0,0,0,0,0,0,0],"sum_hessian":[7.1E1,5.3E1,1.8E1,2.3E1,3E1,6E0,1.2E1,8E0,1.5E1,2E0,2.8E1,2E0,4E0,2E0,1E1,3E0,5E0,7E0,8E0,2.5E1,3E0,1E0,1E0,5E0,5E0],"tree_param":{"num_deleted":"0","num_feature":"6","num_nodes":"25","size_leaf_vector":"1"}},{"base_weights":[2.3240234E1,-2.9828006E2,4.2200058E2,-1.4228003E2,-7.6765216E2,6.583081E2,-1.873375E2,-3.1400766E2,8.4785077E2,1.0538834E2,-9.990858E2,1.1863174E3,1.9642166E2,-7.588638E2,1.6601144E2,-9.909282E0,-9.445962E1,1.6524112E2,2.3360792E1,-1.6903809E1,3.2712063E1,-1.1230814E2,-6.5558105E0,1.0891309E1,1.4136392E2,7.3969126E0,8.941524E1,-9.960117E1,-3.4781055E1,-2.0246632E1,4.9298634E1],"categories":[],"categories_nodes":[],"categories_segments":[],"categories_sizes":[],"default_left":[0,0,0,0,0,0,0,0,0,0,0,0,0,0,0,0,0,0,0,0,0,0,0,0,0,0,0,0,0,0,0],"id":23,"left_children":[1,3,5,7,9,11,13,15,17,19,21,23,25,27,29,-1,-1,-1,-1,-1,-1,-1,-1,-1,-1,-1,-1,-1,-1,-1,-1],"loss_changes":[9.485171E6,2.8928832E6,4.8750335E6,5.707282E6,2.125801E6,5.62011E6,2.145462E6,3.7010362E6,2.0849608E6,2.3784342E5,8.524005E5,2.540128E6,1.1300049E6,4.349825E4,9.431939E5,0E0,0E0,0E0,0E0,0E0,0E0,0E0,0E0,0E0,0E0,0E0,0E0,0E0,0E0,0E0,0E0],"parents":[2147483647,0,0,1,1,2,2,3,3,4,4,5,5,6,6,7,7,8,8,9,9,10,10,11,11,12,12,13,13,14,14],"right_children":[2,4,6,8,10,12,14,16,18,20,22,24,26,28,30,-1,-1,-1,-1,-1,-1,-1,-1,-1,-1,-1,-1,-1,-1,-1,-1],"split_conditions":[1.3932E4,1.5926E4,1.7697E4,1.472E4,1.0947E4,1.3401E4,2.0128E4,1.3784E4,1.4752E4,1.2268E4,2.0677E4,1.0306E4,2.2135E4,1.5113E4,1.5175E4,-9.909282E0,-9.445962E1,1.6524112E2,2.3360792E1,-1.6903809E1,3.2712063E1,-1.1230814E2,-6.5558105E0,1.0891309E1,1.4136392E2,7.3969126E0,8.941524E1,-9.960117E1,-3.4781055E1,-2.0246632E1,4.9298634E1],"split_indices":[0,2,5,2,4,2,5,2,2,0,4,5,0,0,0,0,0,0,0,0,0,0,0,0,0,0,0,0,0,0,0],"split_type":[0,0,0,0,0,0,0,0,0,0,0,0,0,0,0,0,0,0,0,0,0,0,0,0,0,0,0,0,0,0,0],"sum_hessian":[7.2E1,4E1,3.2E1,3.1E1,9E0,2.3E1,9E0,2.7E1,4E0,2E0,7E0,1E1,1.3E1,3E0,6E0,2.1E1,6E0,1E0,3E0,1E0,1E0,6E0,1E0,2E0,8E0,1.2E1,1E0,1E0,2E0,3E0,3E0],"tree_param":{"num_deleted":"0","num_feature":"6","num_nodes":"31","size_leaf_vector":"1"}},{"base_weights":[2.2823664E1,-5.78044E2,1.7519978E2,-7.1276215E2,1.9841602E2,3.1848087E2,-5.587256E2,-8.408555E2,-5.4990234E0,-3.0874023E-1,3.0071142E1,-1.3459486E2,6.5121136E2,-1.2101719E2,7.726725E1,-3.4086212E1,-1.0778715E2,3.3658203E1,-3.448306E1,1.2840224E1,-1.0544655E2,1.6247733E2,2.0296053E1,-6.6769585E1,3.59799E1],"categories":[],"categories_nodes":[],"categories_segments":[],"categories_sizes":[],"default_left":[0,0,0,0,0,0,0,0,0,0,0,0,0,0,0,0,0,0,0,0,0,0,0,0,0],"id":24,"left_children":[1,3,5,7,9,11,13,15,17,-1,-1,19,21,-1,23,-1,-1,-1,-1,-1,-1,-1,-1,-1,-1],"loss_changes":[6.7849985E6,1.7104725E6,6.382243E6,1.17312E6,6.276703E4,7.625255E6,4.236659E6,9.36165E5,4.6430044E5,0E0,0E0,5.4577085E6,1.2325833E7,0E0,1.5030906E6,0E0,0E0,0E0,0E0,0E0,0E0,0E0,0E0,0E0,0E0],"parents":[2147483647,0,0,1,1,2,2,3,3,4,4,5,5,6,6,7,7,8,8,11,11,12,12,14,14],"right_children":[2,4,6,8,10,12,14,16,18,-1,-1,20,22,-1,24,-1,-1,-1,-1,-1,-1,-1,-1,-1,-1],"split_conditions":[1.0015E4,1.5388E4,2.0128E4,1.247E4,7.049E3,1.2181E4,1.5189E4,8.456E3,8.997E3,-3.0874023E-1,3.0071142E1,1.0965E4,1.3754E4,-1.2101719E2,2.0677E4,-3.4086212E1,-1.0778715E2,3.3658203E1,-3.448306E1,1.2840224E1,-1.0544655E2,1.6247733E2,2.0296053E1,-6.6769585E1,3.59799E1],"split_indices":[0,5,2,1,0,4,0,1,0,0,0,4,5,0,2,0,0,0,0,0,0,0,0,0,0],"split_type":[0,0,0,0,0,0,0,0,0,0,0,0,0,0,0,0,0,0,0,0,0,0,0,0,0],"sum_hessian":[7.2E1,1.4E1,5.8E1,1.2E1,2E0,4.9E1,9E0,1E1,2E0,1E0,1E0,2.1E1,2.8E1,4E0,5E0,4E0,6E0,1E0,1E0,1.7E1,4E0,8E0,2E1,1E0,4E0],"tree_param":{"num_deleted":"0","num_feature":"6","num_nodes":"25","size_leaf_vector":"1"}},{"base_weights":[1.1942951E2,-3.802159E2,3.6686365E2,4.284121E2,-5.0995667E2,9.196951E2,7.9657776E1,1.1203126E0,5.6374737E1,-7.91662E2,8.198547E1,-1.0831299E2,1.357058E3,-5.8961865E2,3.4418204E2,-4.7609932E1,-1.1856561E2,3.2881557E1,-8.229126E1,5.6230957E1,-5.8420166E1,2.7626627E1,1.5455896E2,1.3164893E1,-9.1754036E1,1.1240165E0,7.039324E1],"categories":[],"categories_nodes":[],"categories_segments":[],"categories_sizes":[],"default_left":[0,0,0,0,0,0,0,0,0,0,0,0,0,0,0,0,0,0,0,0,0,0,0,0,0,0,0],"id":25,"left_children":[1,3,5,7,9,11,13,-1,-1,15,17,19,21,23,25,-1,-1,-1,-1,-1,-1,-1,-1,-1,-1,-1,-1],"loss_changes":[9.288058E6,2.8412712E6,7.8655615E6,2.1953669E5,3.7334765E6,7.790398E6,6.2222905E6,0E0,0E0,1.300457E6,2.057435E6,2.2433522E6,2.01817E6,2.485986E6,2.9864868E6,0E0,0E0,0E0,0E0,0E0,0E0,0E0,0E0,0E0,0E0,0E0,0E0],"parents":[2147483647,0,0,1,1,2,2,3,3,4,4,5,5,6,6,9,9,10,10,11,11,12,12,13,13,14,14],"right_children":[2,4,6,8,10,12,14,-1,-1,16,18,20,22,24,26,-1,-1,-1,-1,-1,-1,-1,-1,-1,-1,-1,-1],"split_conditions":[1.1608E4,7.962E3,1.3754E4,9.498E3,1.5388E4,1.0792E4,1.1143E4,1.1203126E0,5.6374737E1,1.276E4,1.0947E4,9.498E3,8.728E3,1.1143E4,1.701E4,-4.7609932E1,-1.1856561E2,3.2881557E1,-8.229126E1,5.6230957E1,-5.8420166E1,2.7626627E1,1.5455896E2,1.3164893E1,-9.1754036E1,1.1240165E0,7.039324E1],"split_indices":[0,5,1,0,5,2,5,0,0,2,0,1,5,3,0,0,0,0,0,0,0,0,0,0,0,0,0],"split_type":[0,0,0,0,0,0,0,0,0,0,0,0,0,0,0,0,0,0,0,0,0,0,0,0,0,0,0],"sum_hessian":[7.3E1,2.4E1,4.9E1,3E0,2.1E1,1.6E1,3.3E1,1E0,2E0,1.4E1,7E0,5E0,1.1E1,9E0,2.4E1,9E0,5E0,6E0,1E0,2E0,3E0,2E0,9E0,3E0,6E0,1.3E1,1.1E1],"tree_param":{"num_deleted":"0","num_feature":"6","num_nodes":"27","size_leaf_vector":"1"}},{"base_weights":[6.298496E0,-1.1090064E2,6.015359E2,-5.0580814E2,6.591146E0,3.749921E2,1.15617E2,9.0998535E1,-6.768462E2,1.7861975E2,-3.8377975E2,8.801123E1,6.443707E1,-5.8158526E0,2.6923487E1,3.4355812E1,-8.132424E1,-1.5861079E1,6.163525E1,-5.8774055E1,6.2797688E1,2.7396704E1,-1.8926693E1],"categories":[],"categories_nodes":[],"categories_segments":[],"categories_sizes":[],"default_left":[0,0,0,0,0,0,0,0,0,0,0,0,0,0,0,0,0,0,0,0,0,0,0],"id":26,"left_children":[1,3,5,7,9,11,-1,13,15,17,19,21,-1,-1,-1,-1,-1,-1,-1,-1,-1,-1,-1],"loss_changes":[5.0895245E6,2.8336355E6,1.0742325E6,1.4906652E6,3.2919888E6,7.16353E5,0E0,1.2199914E5,1.8103685E6,5.1167325E6,3.4644675E6,3.612218E5,0E0,0E0,0E0,0E0,0E0,0E0,0E0,0E0,0E0,0E0,0E0],"parents":[2147483647,0,0,1,1,2,2,3,3,4,4,5,5,7,7,8,8,9,9,10,10,11,11],"right_children":[2,4,6,8,10,12,-1,14,16,18,20,22,-1,-1,-1,-1,-1,-1,-1,-1,-1,-1,-1],"split_conditions":[1.999E4,1.0015E4,2.3125E4,7.975E3,1.5936E4,1.2674E4,1.15617E2,7.962E3,8.251E3,1.2026E4,2.2135E4,2.1247E4,6.443707E1,-5.8158526E0,2.6923487E1,3.4355812E1,-8.132424E1,-1.5861079E1,6.163525E1,-5.8774055E1,6.2797688E1,2.7396704E1,-1.8926693E1],"split_indices":[0,0,0,0,5,5,0,0,4,4,5,0,0,0,0,0,0,0,0,0,0,0,0],"split_type":[0,0,0,0,0,0,0,0,0,0,0,0,0,0,0,0,0,0,0,0,0,0,0],"sum_hessian":[7.1E1,6E1,1.1E1,1.3E1,4.7E1,9E0,2E0,3E0,1E1,3.3E1,1.4E1,5E0,4E0,2E0,1E0,1E0,9E0,1.9E1,1.4E1,1.2E1,2E0,3E0,2E0],"tree_param":{"num_deleted":"0","num_feature":"6","num_nodes":"23","size_leaf_vector":"1"}},{"base_weights":[4.7021805E1,-4.6960324E2,2.0027802E2,-1.3804945E2,-2.561181E2,6.175748E2,-2.462238E1,3.9185132E2,-4.5076474E2,6.931523E1,1.0598495E3,-3.0074396E2,4.702106E2,6.118083E1,-1.3400977E1,-7.7523125E1,-1.0825558E1,-5.3094875E1,1.9500555E1,1.6429802E2,4.9192062E1,-9.556854E0,-1.1023318E2,1.9406483E1,7.186328E1],"categories":[],"categories_nodes":[],"categories_segments":[],"categories_sizes":[],"default_left":[0,0,0,0,0,0,0,0,0,0,0,0,0,0,0,0,0,0,0,0,0,0,0,0,0],"id":27,"left_children":[1,3,5,-1,7,9,11,13,15,17,19,21,23,-1,-1,-1,-1,-1,-1,-1,-1,-1,-1,-1,-1],"loss_changes":[5.8738985E6,2.9522792E6,5.3646685E6,0E0,2.0685088E6,4.7761645E6,5.333507E6,5.4465556E5,1.24967E6,8.580115E5,2.834727E6,4.0063045E6,8.20949E5,0E0,0E0,0E0,0E0,0E0,0E0,0E0,0E0,0E0,0E0,0E0,0E0],"parents":[2147483647,0,0,1,1,2,2,4,4,5,5,6,6,7,7,8,8,9,9,10,10,11,11,12,12],"right_children":[2,4,6,-1,8,10,12,14,16,18,20,22,24,-1,-1,-1,-1,-1,-1,-1,-1,-1,-1,-1,-1],"split_conditions":[1.0862E4,8.251E3,1.3784E4,-1.3804945E2,8.251E3,1.276E4,1.8944E4,9.498E3,1.0583E4,7.049E3,1.3754E4,1.8944E4,1.2759E4,6.118083E1,-1.3400977E1,-7.7523125E1,-1.0825558E1,-5.3094875E1,1.9500555E1,1.6429802E2,4.9192062E1,-9.556854E0,-1.1023318E2,1.9406483E1,7.186328E1],"split_indices":[1,3,1,0,2,4,1,1,2,2,5,2,5,0,0,0,0,0,0,0,0,0,0,0,0],"split_type":[0,0,0,0,0,0,0,0,0,0,0,0,0,0,0,0,0,0,0,0,0,0,0,0,0],"sum_hessian":[7.2E1,1.6E1,5.6E1,2E0,1.4E1,1.9E1,3.7E1,3E0,1.1E1,9E0,1E1,2.4E1,1.3E1,2E0,1E0,5E0,6E0,1E0,8E0,4E0,6E0,2E1,4E0,7E0,6E0],"tree_param":{"num_deleted":"0","num_feature":"6","num_nodes":"25","size_leaf_vector":"1"}},{"base_weights":[1.1647757E1,-2.7474533E2,2.6758768E2,4.6209277E2,-3.6095847E2,8.201756E2,1.2082393E1,9.00669E0,5.560791E1,-6.542784E2,-4.4652996E0,1.4666951E3,3.1357898E2,-6.452962E2,1.9081827E2,-3.19718E1,-1.21435295E2,-7.672725E1,4.5366554E1,5.4669758E1,1.8977943E2,-5.9504543E1,5.2838898E1,3.2068752E1,-9.0263054E1,4.3269993E1,7.306891E0],"categories":[],"categories_nodes":[],"categories_segments":[],"categories_sizes":[],"default_left":[0,0,0,0,0,0,0,0,0,0,0,0,0,0,0,0,0,0,0,0,0,0,0,0,0,0,0],"id":28,"left_children":[1,3,5,7,9,11,13,-1,-1,15,17,19,21,23,25,-1,-1,-1,-1,-1,-1,-1,-1,-1,-1,-1,-1],"loss_changes":[5.277778E6,2.3266505E6,5.3552775E6,8.977706E4,3.2386415E6,3.4703705E6,3.2955572E6,0E0,0E0,2.797188E6,5.5900675E6,9.45531E5,1.875868E6,1.7809462E6,5.949742E5,0E0,0E0,0E0,0E0,0E0,0E0,0E0,0E0,0E0,0E0,0E0,0E0],"parents":[2147483647,0,0,1,1,2,2,3,3,4,4,5,5,6,6,9,9,10,10,11,11,12,12,13,13,14,14],"right_children":[2,4,6,8,10,12,14,-1,-1,16,18,20,22,24,26,-1,-1,-1,-1,-1,-1,-1,-1,-1,-1,-1,-1],"split_conditions":[1.276E4,7.962E3,1.3754E4,9.498E3,1.2181E4,1.472E4,1.5113E4,9.00669E0,5.560791E1,1.0015E4,1.1143E4,9.498E3,1.4767E4,1.3754E4,1.2965E4,-3.19718E1,-1.21435295E2,-7.672725E1,4.5366554E1,5.4669758E1,1.8977943E2,-5.9504543E1,5.2838898E1,3.2068752E1,-9.0263054E1,4.3269993E1,7.306891E0],"split_indices":[0,5,1,0,1,0,0,0,0,1,5,2,0,0,2,0,0,0,0,0,0,0,0,0,0,0,0],"split_type":[0,0,0,0,0,0,0,0,0,0,0,0,0,0,0,0,0,0,0,0,0,0,0,0,0,0,0],"sum_hessian":[7E1,3.3E1,3.7E1,3E0,3E1,1.1E1,2.6E1,1E0,2E0,1.6E1,1.4E1,4E0,7E0,5E0,2.1E1,1.1E1,5E0,5E0,9E0,2E0,2E0,1E0,6E0,1E0,4E0,6E0,1.5E1],"tree_param":{"num_deleted":"0","num_feature":"6","num_nodes":"27","size_leaf_vector":"1"}},{"base_weights":[-2.655004E1,-3.6420712E2,2.4742355E2,5.472578E2,-4.7006686E2,7.682307E2,1.3493001E1,8.556348E0,6.726348E1,-5.7381415E2,1.8418184E2,3.142207E1,1.0922098E3,-5.444872E2,2.411443E2,-2.0943213E1,-8.112373E1,-4.2449465E0,5.453535E1,2.4515984E1,-1.9278973E1,1.4303923E2,5.355856E1,-8.123604E1,2.620459E1,1.0868911E1,1.0437975E2],"categories":[],"categories_nodes":[],"categories_segments":[],"categories_sizes":[],"default_left":[0,0,0,0,0,0,0,0,0,0,0,0,0,0,0,0,0,0,0,0,0,0,0,0,0,0,0],"id":29,"left_children":[1,3,5,7,9,11,13,-1,-1,15,17,19,21,23,25,-1,-1,-1,-1,-1,-1,-1,-1,-1,-1,-1,-1],"loss_changes":[7.028297E6,3.5378215E6,5.106608E6,1.7399038E5,2.209859E6,3.0689185E6,3.9420478E6,0E0,0E0,2.165944E6,4.32414E5,2.868769E5,9.28067E5,2.1573128E6,2.2254935E6,0E0,0E0,0E0,0E0,0E0,0E0,0E0,0E0,0E0,0E0,0E0,0E0],"parents":[2147483647,0,0,1,1,2,2,3,3,4,4,5,5,6,6,9,9,10,10,11,11,12,12,13,13,14,14],"right_children":[2,4,6,8,10,12,14,-1,-1,16,18,20,22,24,26,-1,-1,-1,-1,-1,-1,-1,-1,-1,-1,-1,-1],"split_conditions":[1.276E4,7.975E3,1.3754E4,9.498E3,2.0677E4,1.0965E4,1.5189E4,8.556348E0,6.726348E1,1.0947E4,1.0862E4,1.247E4,1.472E4,2.0128E4,2.3125E4,-2.0943213E1,-8.112373E1,-4.2449465E0,5.453535E1,2.4515984E1,-1.9278973E1,1.4303923E2,5.355856E1,-8.123604E1,2.620459E1,1.0868911E1,1.0437975E2],"split_indices":[0,5,1,0,4,1,0,0,0,4,0,3,0,5,0,0,0,0,0,0,0,0,0,0,0,0,0],"split_type":[0,0,0,0,0,0,0,0,0,0,0,0,0,0,0,0,0,0,0,0,0,0,0,0,0,0,0],"sum_hessian":[7.4E1,3.3E1,4.1E1,3E0,3E1,1.2E1,2.9E1,1E0,2E0,2.6E1,4E0,4E0,8E0,8E0,2.1E1,1.1E1,1.5E1,3E0,1E0,2E0,2E0,4E0,4E0,6E0,2E0,1.9E1,2E0],"tree_param":{"num_deleted":"0","num_feature":"6","num_nodes":"27","size_leaf_vector":"1"}},{"base_weights":[5.0227394E1,-3.5122204E1,6.08512E2,-1.3628471E2,2.644806E2,9.283926E2,2.405262E2,6.530245E1,-3.7576974E2,1.3028633E3,-1.5524203E2,2.1308496E1,1.0539483E2,-2.2024414E1,3.767291E2,5.780685E1,-4.176327E1,-6.3325356E1,2.2284572E0,1.7567632E2,4.146758E1,-4.186004E1,3.4985138E1,5.1206738E1,-8.231201E0],"categories":[],"categories_nodes":[],"categories_segments":[],"categories_sizes":[],"default_left":[0,0,0,0,0,0,0,0,0,0,0,0,0,0,0,0,0,0,0,0,0,0,0,0,0],"id":30,"left_children":[1,3,5,7,9,11,13,15,17,19,21,-1,-1,-1,23,-1,-1,-1,-1,-1,-1,-1,-1,-1,-1],"loss_changes":[3.595075E6,2.0364101E6,9.5381225E5,2.4383942E6,7.6114155E6,2.24474E5,4.5952194E5,7.1751365E6,2.3714402E6,1.287253E6,1.8757152E6,0E0,0E0,0E0,3.5277838E5,0E0,0E0,0E0,0E0,0E0,0E0,0E0,0E0,0E0,0E0],"parents":[2147483647,0,0,1,1,2,2,3,3,4,4,5,5,6,6,7,7,8,8,9,9,10,10,14,14],"right_children":[2,4,6,8,10,12,14,16,18,20,22,-1,-1,-1,24,-1,-1,-1,-1,-1,-1,-1,-1,-1,-1],"split_conditions":[1.9933E4,1.713E4,2.0128E4,1.2181E4,1.8581E4,1.1143E4,1.2628E4,1.276E4,1.2143E4,1.3754E4,2.0128E4,2.1308496E1,1.0539483E2,-2.2024414E1,2.3541E4,5.780685E1,-4.176327E1,-6.3325356E1,2.2284572E0,1.7567632E2,4.146758E1,-4.186004E1,3.4985138E1,5.1206738E1,-8.231201E0],"split_indices":[0,3,1,2,3,2,3,5,5,5,5,0,0,0,1,0,0,0,0,0,0,0,0,0,0],"split_type":[0,0,0,0,0,0,0,0,0,0,0,0,0,0,0,0,0,0,0,0,0,0,0,0,0],"sum_hessian":[7.4E1,6.5E1,9E0,4.9E1,1.6E1,4E0,5E0,2.7E1,2.2E1,4E0,1.2E1,1E0,3E0,1E0,4E0,1.3E1,1.4E1,1.3E1,9E0,2E0,2E0,8E0,4E0,3E0,1E0],"tree_param":{"num_deleted":"0","num_feature":"6","num_nodes":"25","size_leaf_vector":"1"}},{"base_weights":[3.7822483E1,-5.3549118E1,4.9879965E2,-3.7590887E2,4.046907E1,2.0163742E2,7.247048E2,-6.8901E1,-6.3592816E2,2.8803195E2,-1.8201454E2,4.0559734E1,5.8405178E1,8.692777E1,2.4218164E1,-2.4737051E1,1.7141113E1,-1.029094E2,1.4511231E0,6.5906685E1,-2.4410948E1,-6.6051384E1,1.2051362E1,2.797767E1,-1.4899292E1],"categories":[],"categories_nodes":[],"categories_segments":[],"categories_sizes":[],"default_left":[0,0,0,0,0,0,0,0,0,0,0,0,0,0,0,0,0,0,0,0,0,0,0,0,0],"id":31,"left_children":[1,3,5,7,9,11,13,15,17,19,21,23,-1,-1,-1,-1,-1,-1,-1,-1,-1,-1,-1,-1,-1],"loss_changes":[3.3120875E6,2.0155198E6,7.2656875E5,1.1536032E6,2.9165175E6,4.0749997E5,2.77795E5,3.8550916E5,2.0607785E6,5.096961E6,4.1328672E6,3.1375E5,0E0,0E0,0E0,0E0,0E0,0E0,0E0,0E0,0E0,0E0,0E0,0E0,0E0],"parents":[2147483647,0,0,1,1,2,2,3,3,4,4,5,5,6,6,7,7,8,8,9,9,10,10,11,11],"right_children":[2,4,6,8,10,12,14,16,18,20,22,24,-1,-1,-1,-1,-1,-1,-1,-1,-1,-1,-1,-1,-1],"split_conditions":[1.999E4,1.0015E4,1.2674E4,9.364E3,1.3784E4,2.2135E4,2.0128E4,9.545E3,1.2181E4,1.3754E4,1.2628E4,2.0677E4,5.8405178E1,8.692777E1,2.4218164E1,-2.4737051E1,1.7141113E1,-1.029094E2,1.4511231E0,6.5906685E1,-2.4410948E1,-6.6051384E1,1.2051362E1,2.797767E1,-1.4899292E1],"split_indices":[0,0,5,1,1,0,1,2,1,5,5,0,0,0,0,0,0,0,0,0,0,0,0,0,0],"split_type":[0,0,0,0,0,0,0,0,0,0,0,0,0,0,0,0,0,0,0,0,0,0,0,0,0],"sum_hessian":[7.7E1,6.5E1,1.2E1,1.4E1,5.1E1,6E0,6E0,7E0,7E0,2.4E1,2.7E1,5E0,1E0,4E0,2E0,4E0,3E0,4E0,3E0,1.4E1,1E1,1E1,1.7E1,2E0,3E0],"tree_param":{"num_deleted":"0","num_feature":"6","num_nodes":"25","size_leaf_vector":"1"}},{"base_weights":[5.191268E1,-2.8373645E2,1.569964E2,-3.4411808E1,-7.766504E2,1.2946315E2,9.208909E1,-5.884134E1,1.19807884E2,-2.3157227E1,-8.393516E1,1.5593263E2,-4.5528857E2,3.5289146E1,-1.3324366E1,-1.5753044E0,4.901315E1,-7.6679955E1,1.1182227E1],"categories":[],"categories_nodes":[],"categories_segments":[],"categories_sizes":[],"default_left":[0,0,0,0,0,0,0,0,0,0,0,0,0,0,0,0,0,0,0],"id":32,"left_children":[1,3,5,7,9,-1,11,-1,13,-1,-1,15,17,-1,-1,-1,-1,-1,-1],"loss_changes":[2.6546185E6,2.1853948E6,4.089706E6,1.18119E6,1.069175E4,0E0,1.9930535E6,0E0,6.9582425E5,0E0,0E0,2.8765785E6,1.1457129E6,0E0,0E0,0E0,0E0,0E0,0E0],"parents":[2147483647,0,0,1,1,2,2,3,3,4,4,6,6,8,8,11,11,12,12],"right_children":[2,4,6,8,10,-1,12,-1,14,-1,-1,16,18,-1,-1,-1,-1,-1,-1],"split_conditions":[1.0583E4,1.3821E4,1.0792E4,7.237E3,7.237E3,1.2946315E2,2.09E4,-5.884134E1,8.642E3,-2.3157227E1,-8.393516E1,1.5936E4,1.8944E4,3.5289146E1,-1.3324366E1,-1.5753044E0,4.901315E1,-7.6679955E1,1.1182227E1],"split_indices":[3,5,3,3,1,0,2,0,3,0,0,3,1,0,0,0,0,0,0],"split_type":[0,0,0,0,0,0,0,0,0,0,0,0,0,0,0,0,0,0,0],"sum_hessian":[7.3E1,1.7E1,5.6E1,1.2E1,5E0,2E0,5.4E1,2E0,1E1,1E0,4E0,4.9E1,5E0,5E0,5E0,3.3E1,1.6E1,3E0,2E0],"tree_param":{"num_deleted":"0","num_feature":"6","num_nodes":"19","size_leaf_vector":"1"}},{"base_weights":[1.7917006E1,-3.0724475E2,1.0291161E2,-5.5901188E1,-7.168338E2,1.2083229E2,4.4959995E1,-4.4019727E2,2.265819E2,-1.0235845E2,-4.507668E1,-1.7253868E2,2.0996016E2,-6.1744366E1,-1.1621842E1,4.270862E1,-3.0567873E0,3.8916943E1,-2.6272537E1,1.0188152E2,6.8152313E0],"categories":[],"categories_nodes":[],"categories_segments":[],"categories_sizes":[],"default_left":[0,0,0,0,0,0,0,0,0,0,0,0,0,0,0,0,0,0,0,0,0],"id":33,"left_children":[1,3,5,7,9,-1,11,13,15,-1,-1,17,19,-1,-1,-1,-1,-1,-1,-1,-1],"loss_changes":[2.1320308E6,1.6070891E6,3.8533562E6,1.2938692E6,2.829975E4,0E0,2.153578E6,2.1536206E5,3.7397253E5,0E0,0E0,1.419368E6,3.8304335E6,0E0,0E0,0E0,0E0,0E0,0E0,0E0,0E0],"parents":[2147483647,0,0,1,1,2,2,3,3,4,4,6,6,7,7,8,8,11,11,12,12],"right_children":[2,4,6,8,10,-1,12,14,16,-1,-1,18,20,-1,-1,-1,-1,-1,-1,-1,-1],"split_conditions":[1.0583E4,1.3821E4,1.0792E4,8.456E3,8.251E3,1.2083229E2,1.2759E4,1.0015E4,1.0015E4,-1.0235845E2,-4.507668E1,1.1143E4,1.3784E4,-6.1744366E1,-1.1621842E1,4.270862E1,-3.0567873E0,3.8916943E1,-2.6272537E1,1.0188152E2,6.8152313E0],"split_indices":[3,5,3,4,3,0,5,2,5,0,0,2,5,0,0,0,0,0,0,0,0],"split_type":[0,0,0,0,0,0,0,0,0,0,0,0,0,0,0,0,0,0,0,0,0],"sum_hessian":[7.5E1,1.5E1,6E1,1E1,5E0,2E0,5.8E1,4E0,6E0,1E0,4E0,2.5E1,3.3E1,2E0,2E0,3E0,3E0,3E0,2.2E1,4E0,2.9E1],"tree_param":{"num_deleted":"0","num_feature":"6","num_nodes":"21","size_leaf_vector":"1"}},{"base_weights":[2.060635E1,-6.708808E1,4.646692E2,-1.6207515E2,1.6882965E2,2.0442062E2,6.9084766E2,-9.553167E1,-1.0396588E2,9.9798566E2,2.8110352E0,3.8661288E2,-1.6737337E1,8.693638E1,2.2254362E1,1.507354E1,-2.865126E1,1.18679886E2,3.101797E1,-6.653906E1,1.4579631E1,1.0816406E0,4.7785793E1],"categories":[],"categories_nodes":[],"categories_segments":[],"categories_sizes":[],"default_left":[0,0,0,0,0,0,0,0,0,0,0,0,0,0,0,0,0,0,0,0,0,0,0],"id":34,"left_children":[1,3,5,7,9,11,13,15,-1,17,19,21,-1,-1,-1,-1,-1,-1,-1,-1,-1,-1,-1],"loss_changes":[2.8349862E6,1.3943202E6,5.65128E5,2.4701685E6,2.4749908E6,5.388746E5,3.081275E5,2.0185449E6,0E0,2.147975E4,1.6256996E6,1.6627912E5,0E0,0E0,0E0,0E0,0E0,0E0,0E0,0E0,0E0,0E0,0E0],"parents":[2147483647,0,0,1,1,2,2,3,3,4,4,5,5,6,6,7,7,9,9,10,10,11,11],"right_children":[2,4,6,8,10,12,14,16,-1,18,20,22,-1,-1,-1,-1,-1,-1,-1,-1,-1,-1,-1],"split_conditions":[1.999E4,1.713E4,1.2674E4,1.6135E4,1.8581E4,1.2256E4,2.0128E4,1.2268E4,-1.0396588E2,1.2965E4,1.9933E4,8.997E3,-1.6737337E1,8.693638E1,2.2254362E1,1.507354E1,-2.865126E1,1.18679886E2,3.101797E1,-6.653906E1,1.4579631E1,1.0816406E0,4.7785793E1],"split_indices":[0,4,5,4,4,4,1,1,0,0,4,5,0,0,0,0,0,0,0,0,0,0,0],"split_type":[0,0,0,0,0,0,0,0,0,0,0,0,0,0,0,0,0,0,0,0,0,0,0],"sum_hessian":[7.1E1,6E1,1.1E1,4.3E1,1.7E1,6E0,5E0,4.1E1,2E0,2E0,1.5E1,4E0,2E0,3E0,2E0,1.8E1,2.3E1,1E0,1E0,2E0,1.3E1,1E0,3E0],"tree_param":{"num_deleted":"0","num_feature":"6","num_nodes":"23","size_leaf_vector":"1"}},{"base_weights":[6.718842E1,-2.0338844E2,2.0113309E2,-8.724964E1,-7.913047E2,5.336818E2,-2.6031494E0,-1.6964607E2,3.259458E2,-9.913636E1,-9.5563965E0,-1.4787416E2,8.596211E2,-4.1527524E2,2.3333342E2,2.007409E1,-3.1626577E1,-8.475342E0,4.910967E1,3.1017872E1,-8.6200424E1,1.2435042E2,3.52935E1,-1.513761E1,-7.5445885E1,1.3086719E1,8.045085E1],"categories":[],"categories_nodes":[],"categories_segments":[],"categories_sizes":[],"default_left":[0,0,0,0,0,0,0,0,0,0,0,0,0,0,0,0,0,0,0,0,0,0,0,0,0,0,0],"id":35,"left_children":[1,3,5,7,9,11,13,15,17,-1,-1,19,21,23,25,-1,-1,-1,-1,-1,-1,-1,-1,-1,-1,-1,-1],"loss_changes":[2.7228402E6,1.637956E6,3.389001E6,8.043036E5,4.6201775E5,4.347886E6,3.2125598E6,1.0953018E6,3.1293147E5,0E0,0E0,2.5571405E6,2.089732E6,9.599161E5,1.1237655E6,0E0,0E0,0E0,0E0,0E0,0E0,0E0,0E0,0E0,0E0,0E0,0E0],"parents":[2147483647,0,0,1,1,2,2,3,3,4,4,5,5,6,6,7,7,8,8,11,11,12,12,13,13,14,14],"right_children":[2,4,6,8,10,12,14,16,18,-1,-1,20,22,24,26,-1,-1,-1,-1,-1,-1,-1,-1,-1,-1,-1,-1],"split_conditions":[1.1608E4,1.52E4,1.3784E4,1.2267E4,1.3932E4,1.2181E4,1.5189E4,8.997E3,8.816E3,-9.913636E1,-9.5563965E0,1.0583E4,1.472E4,1.7816E4,2.3125E4,2.007409E1,-3.1626577E1,-8.475342E0,4.910967E1,3.1017872E1,-8.6200424E1,1.2435042E2,3.52935E1,-1.513761E1,-7.5445885E1,1.3086719E1,8.045085E1],"split_indices":[0,2,1,1,1,4,0,2,5,0,0,4,0,2,0,0,0,0,0,0,0,0,0,0,0,0,0],"split_type":[0,0,0,0,0,0,0,0,0,0,0,0,0,0,0,0,0,0,0,0,0,0,0,0,0,0,0],"sum_hessian":[7.3E1,2.4E1,4.9E1,2.1E1,3E0,1.8E1,3.1E1,1.8E1,3E0,2E0,1E0,6E0,1.2E1,1.1E1,2E1,5E0,1.3E1,1E0,2E0,4E0,2E0,6E0,6E0,7E0,4E0,1.8E1,2E0],"tree_param":{"num_deleted":"0","num_feature":"6","num_nodes":"27","size_leaf_vector":"1"}},{"base_weights":[1.5026437E0,-2.6244724E2,1.1998009E2,1.3463379E1,-4.5449792E2,5.2513464E2,-4.091279E1,-4.6947852E2,4.1367105E2,9.223214E0,-8.5329083E2,4.5019337E1,7.1267883E2,-5.760343E2,8.531266E1,-5.3617065E1,-1.0135498E1,1.2112637E1,9.3819725E1,-1.2675815E1,4.1255566E1,-9.838394E1,-3.4999511E0,-1.8798925E1,2.6302149E1,1.123409E2,2.5162386E1,-8.387142E0,-7.561252E1,3.456064E1,-1.6404474E1],"categories":[],"categories_nodes":[],"categories_segments":[],"categories_sizes":[],"default_left":[0,0,0,0,0,0,0,0,0,0,0,0,0,0,0,0,0,0,0,0,0,0,0,0,0,0,0,0,0,0,0],"id":36,"left_children":[1,3,5,7,9,11,13,15,17,19,21,23,25,27,29,-1,-1,-1,-1,-1,-1,-1,-1,-1,-1,-1,-1,-1,-1,-1,-1],"loss_changes":[2.220536E6,1.1718736E6,3.215622E6,2.1269802E6,2.411943E6,1.2285152E6,2.4807975E6,6.8411125E4,8.0704375E5,4.3621462E5,7.133535E5,3.0342706E5,1.6110155E6,5.57021E5,2.0038798E6,0E0,0E0,0E0,0E0,0E0,0E0,0E0,0E0,0E0,0E0,0E0,0E0,0E0,0E0,0E0,0E0],"parents":[2147483647,0,0,1,1,2,2,3,3,4,4,5,5,6,6,7,7,8,8,9,9,10,10,11,11,12,12,13,13,14,14],"right_children":[2,4,6,8,10,12,14,16,18,20,22,24,26,28,30,-1,-1,-1,-1,-1,-1,-1,-1,-1,-1,-1,-1,-1,-1,-1,-1],"split_conditions":[1.2181E4,1.1738E4,1.3784E4,8.456E3,1.0015E4,1.0583E4,1.4767E4,1.2267E4,1.0583E4,1.0015E4,1.8944E4,1.2674E4,1.3754E4,1.3821E4,1.713E4,-5.3617065E1,-1.0135498E1,1.2112637E1,9.3819725E1,-1.2675815E1,4.1255566E1,-9.838394E1,-3.4999511E0,-1.8798925E1,2.6302149E1,1.123409E2,2.5162386E1,-8.387142E0,-7.561252E1,3.456064E1,-1.6404474E1],"split_indices":[1,5,1,4,1,4,1,2,5,0,4,1,5,1,2,0,0,0,0,0,0,0,0,0,0,0,0,0,0,0,0],"split_type":[0,0,0,0,0,0,0,0,0,0,0,0,0,0,0,0,0,0,0,0,0,0,0,0,0,0,0,0,0,0,0],"sum_hessian":[6.9E1,2.1E1,4.8E1,9E0,1.2E1,1.3E1,3.5E1,4E0,5E0,6E0,6E0,4E0,9E0,6E0,2.9E1,3E0,1E0,4E0,1E0,5E0,1E0,5E0,1E0,2E0,2E0,4E0,5E0,2E0,4E0,1.4E1,1.5E1],"tree_param":{"num_deleted":"0","num_feature":"6","num_nodes":"31","size_leaf_vector":"1"}},{"base_weights":[-8.721572E0,-7.9182915E1,1.2001279E1,-2.193368E2,8.237559E1,-3.5142654E1,-5.81868E2,2.3905371E2,-1.4026881E2,-4.924108E1,9.276163E0,-8.876499E1,-3.4318165E1,-6.477389E0,4.003887E1,5.6691754E-1,-4.0034405E1],"categories":[],"categories_nodes":[],"categories_segments":[],"categories_sizes":[],"default_left":[0,0,0,0,0,0,0,0,0,0,0,0,0,0,0,0,0],"id":37,"left_children":[1,-1,3,5,7,9,11,13,15,-1,-1,-1,-1,-1,-1,-1,-1],"loss_changes":[1.2590759E6,0E0,1.2553676E6,1.1815218E6,2.0916588E6,8.060021E5,1.3329088E5,1.7415655E6,9.511409E5,0E0,0E0,0E0,0E0,0E0,0E0,0E0,0E0],"parents":[2147483647,0,0,2,2,3,3,4,4,5,5,6,6,7,7,8,8],"right_children":[2,-1,4,6,8,10,12,14,16,-1,-1,-1,-1,-1,-1,-1,-1],"split_conditions":[7.049E3,-7.9182915E1,1.0583E4,1.3821E4,1.5926E4,7.237E3,8.251E3,1.0862E4,2.0379E4,-4.924108E1,9.276163E0,-8.876499E1,-3.4318165E1,-6.477389E0,4.003887E1,5.6691754E-1,-4.0034405E1],"split_indices":[5,0,3,5,2,3,3,1,3,0,0,0,0,0,0,0,0],"split_type":[0,0,0,0,0,0,0,0,0,0,0,0,0,0,0,0,0],"sum_hessian":[7.6E1,1E0,7.5E1,1.7E1,5.8E1,1.2E1,5E0,3.4E1,2.4E1,2E0,1E1,1E0,4E0,1.2E1,2.2E1,1.6E1,8E0],"tree_param":{"num_deleted":"0","num_feature":"6","num_nodes":"17","size_leaf_vector":"1"}},{"base_weights":[-1.7028275E1,-2.63151E2,1.03954E2,-1.1656675E2,-5.1079333E2,-3.7973462E2,1.895348E2,-3.2122452E2,2.216907E2,-6.908505E1,-1.1300928E2,4.052798E1,-5.497767E2,7.4643634E2,3.786219E0,-4.003346E1,2.34938E1,-3.7155273E0,4.2511402E1,-1.3067187E1,-3.0010743E0,-7.129254E1,-9.460319E0,4.5844566E1,1.3615964E2,-3.1735514E1,1.7117361E1],"categories":[],"categories_nodes":[],"categories_segments":[],"categories_sizes":[],"default_left":[0,0,0,0,0,0,0,0,0,0,0,0,0,0,0,0,0,0,0,0,0,0,0,0,0,0,0],"id":38,"left_children":[1,3,5,7,9,11,13,15,17,-1,19,-1,21,23,25,-1,-1,-1,-1,-1,-1,-1,-1,-1,-1,-1,-1],"loss_changes":[2.2605922E6,8.4797025E5,2.1830902E6,1.2480718E6,5.665425E5,1.290697E6,4.5486955E6,5.780324E5,3.8438234E5,0E0,1.9423203E3,0E0,4.5238175E5,1.324546E6,1.8819934E6,0E0,0E0,0E0,0E0,0E0,0E0,0E0,0E0,0E0,0E0,0E0,0E0],"parents":[2147483647,0,0,1,1,2,2,3,3,4,4,5,5,6,6,7,7,8,8,10,10,12,12,13,13,14,14],"right_children":[2,4,6,8,10,12,14,16,18,-1,20,-1,22,24,26,-1,-1,-1,-1,-1,-1,-1,-1,-1,-1,-1,-1],"split_conditions":[1.1608E4,1.276E4,1.0862E4,1.2181E4,1.713E4,1.2143E4,1.3401E4,1.2267E4,7.962E3,-6.908505E1,1.0583E4,4.052798E1,1.4767E4,1.701E4,1.5189E4,-4.003346E1,2.34938E1,-3.7155273E0,4.2511402E1,-1.3067187E1,-3.0010743E0,-7.129254E1,-9.460319E0,4.5844566E1,1.3615964E2,-3.1735514E1,1.7117361E1],"split_indices":[0,2,2,3,4,0,1,1,0,0,0,0,0,3,0,0,0,0,0,0,0,0,0,0,0,0,0],"split_type":[0,0,0,0,0,0,0,0,0,0,0,0,0,0,0,0,0,0,0,0,0,0,0,0,0,0,0],"sum_hessian":[7.4E1,2.4E1,5E1,1.6E1,8E0,7E0,4.3E1,1E1,6E0,5E0,3E0,1E0,6E0,1E1,3.3E1,9E0,1E0,3E0,3E0,2E0,1E0,4E0,2E0,8E0,2E0,1.1E1,2.2E1],"tree_param":{"num_deleted":"0","num_feature":"6","num_nodes":"27","size_leaf_vector":"1"}},{"base_weights":[2.265211E1,-2.5384926E2,7.057057E1,-1.3196016E2,-7.363702E1,-6.088099E2,1.0282583E2,-3.958213E2,1.0991748E2,-8.076211E1,-1.0559375E1,-4.8512955E1,1.3097905E2,-4.5432228E1,-8.090869E0,3.507526E1,-9.818824E0,2.8950775E1,-2.1547112E0],"categories":[],"categories_nodes":[],"categories_segments":[],"categories_sizes":[],"default_left":[0,0,0,0,0,0,0,0,0,0,0,0,0,0,0,0,0,0,0],"id":39,"left_children":[1,3,5,7,-1,9,11,13,15,-1,-1,-1,17,-1,-1,-1,-1,-1,-1],"loss_changes":[9.851291E5,5.497829E5,1.4431579E6,6.8172875E5,0E0,2.1485525E5,1.073265E6,5.5354875E4,3.3515475E5,0E0,0E0,0E0,1.4328445E6,0E0,0E0,0E0,0E0,0E0,0E0],"parents":[2147483647,0,0,1,1,2,2,3,3,5,5,6,6,7,7,8,8,12,12],"right_children":[2,4,6,8,-1,10,12,14,16,-1,-1,-1,18,-1,-1,-1,-1,-1,-1],"split_conditions":[8.816E3,8.728E3,8.251E3,1.0677E4,-7.363702E1,1.0306E4,7.237E3,1.2267E4,1.0306E4,-8.076211E1,-1.0559375E1,-4.8512955E1,1.3784E4,-4.5432228E1,-8.090869E0,3.507526E1,-9.818824E0,2.8950775E1,-2.1547112E0],"split_indices":[4,4,3,1,0,1,1,2,2,0,0,0,3,0,0,0,0,0,0],"split_type":[0,0,0,0,0,0,0,0,0,0,0,0,0,0,0,0,0,0,0],"sum_hessian":[7.2E1,1E1,6.2E1,9E0,1E0,2E0,6E1,4E0,5E0,1E0,1E0,2E0,5.8E1,3E0,1E0,2E0,3E0,2.8E1,3E1],"tree_param":{"num_deleted":"0","num_feature":"6","num_nodes":"19","size_leaf_vector":"1"}},{"base_weights":[-6.1768394E0,1.0128187E2,-2.7197095E2,-1.7754254E2,2.4178351E2,-4.074838E2,5.7266743E1,-1.3736165E1,-4.3299023E2,-5.6749677E2,3.0802768E2,2.9636427E1,-4.7892752E2,1.8500821E2,-1.7472462E1,-4.592015E1,1.2127706E1,-7.672402E1,-2.4940853E1,-1.5169336E1,-6.995518E1,9.767077E1,2.3338034E1,-2.811402E1,-6.957873E1,1.8158692E0,2.2218092E1],"categories":[],"categories_nodes":[],"categories_segments":[],"categories_sizes":[],"default_left":[0,0,0,0,0,0,0,0,0,0,0,0,0,0,0,0,0,0,0,0,0,0,0,0,0,0,0],"id":40,"left_children":[1,3,5,7,9,11,13,15,17,19,21,-1,23,25,-1,-1,-1,-1,-1,-1,-1,-1,-1,-1,-1,-1,-1],"loss_changes":[2.0840019E6,2.0800416E6,9.6026975E5,7.472437E5,2.051158E6,8.9622E5,2.3976989E5,7.7741506E5,2.3817888E5,5.8609375E4,1.419257E6,0E0,4.04876E5,2.6976719E4,0E0,0E0,0E0,0E0,0E0,0E0,0E0,0E0,0E0,0E0,0E0,0E0,0E0],"parents":[2147483647,0,0,1,1,2,2,3,3,4,4,5,5,6,6,7,7,8,8,9,9,10,10,12,12,13,13],"right_children":[2,4,6,8,10,12,14,16,18,20,22,-1,24,26,-1,-1,-1,-1,-1,-1,-1,-1,-1,-1,-1,-1,-1],"split_conditions":[1.5926E4,1.0583E4,2.0249E4,1.0015E4,8.816E3,1.0947E4,2.09E4,8.642E3,8.251E3,1.0895E4,1.0792E4,2.9636427E1,1.999E4,2.09E4,-1.7472462E1,-4.592015E1,1.2127706E1,-7.672402E1,-2.4940853E1,-1.5169336E1,-6.995518E1,9.767077E1,2.3338034E1,-2.811402E1,-6.957873E1,1.8158692E0,2.2218092E1],"split_indices":[2,3,1,4,4,4,0,0,3,0,3,0,2,1,0,0,0,0,0,0,0,0,0,0,0,0,0],"split_type":[0,0,0,0,0,0,0,0,0,0,0,0,0,0,0,0,0,0,0,0,0,0,0,0,0,0,0],"sum_hessian":[7.1E1,5.1E1,2E1,1.7E1,3.4E1,1.4E1,6E0,1.1E1,6E0,2E0,3.2E1,1E0,1.3E1,4E0,2E0,2E0,9E0,1E0,5E0,1E0,1E0,2E0,3E1,8E0,5E0,1E0,3E0],"tree_param":{"num_deleted":"0","num_feature":"6","num_nodes":"27","size_leaf_vector":"1"}},{"base_weights":[2.0815702E1,-2.0799947E2,1.0402094E2,-8.1796684E1,-8.81229E1,-6.645742E1,1.321223E2,2.2959236E2,-2.8229416E2,2.743941E2,-6.789027E1,-7.5680995E0,3.668379E1,-4.4027534E1,1.04241705E1,1.2689734E1,9.864984E1,-2.099426E1,3.459064E1],"categories":[],"categories_nodes":[],"categories_segments":[],"categories_sizes":[],"default_left":[0,0,0,0,0,0,0,0,0,0,0,0,0,0,0,0,0,0,0],"id":41,"left_children":[1,3,5,-1,7,-1,9,11,13,15,17,-1,-1,-1,-1,-1,-1,-1,-1],"loss_changes":[1.3543398E6,1.3172132E6,1.2109308E6,0E0,1.1135625E6,0E0,1.4698924E6,3.2104447E5,7.1761425E5,3.0258088E6,1.3657978E6,0E0,0E0,0E0,0E0,0E0,0E0,0E0,0E0],"parents":[2147483647,0,0,1,1,2,2,4,4,6,6,7,7,8,8,9,9,10,10],"right_children":[2,4,6,-1,8,-1,10,12,14,16,18,-1,-1,-1,-1,-1,-1,-1,-1],"split_conditions":[1.0862E4,8.251E3,7.049E3,-8.1796684E1,8.816E3,-6.645742E1,1.3784E4,7.61E3,1.5189E4,1.5388E4,2.0128E4,-7.5680995E0,3.668379E1,-4.4027534E1,1.04241705E1,1.2689734E1,9.864984E1,-2.099426E1,3.459064E1],"split_indices":[1,3,5,0,2,0,5,1,3,4,5,0,0,0,0,0,0,0,0],"split_type":[0,0,0,0,0,0,0,0,0,0,0,0,0,0,0,0,0,0,0],"sum_hessian":[6.9E1,1.8E1,5.1E1,2E0,1.6E1,1E0,5E1,6E0,1E1,2.9E1,2.1E1,2E0,4E0,7E0,3E0,2.5E1,4E0,1.6E1,5E0],"tree_param":{"num_deleted":"0","num_feature":"6","num_nodes":"19","size_leaf_vector":"1"}},{"base_weights":[3.2623184E1,4.7727118E0,6.9016014E1,-6.374228E1,2.6937918E2,-2.5970346E1,-7.47571E1,4.6808237E2,-3.940752E2,-9.551258E0,3.478072E1,1.0338013E1,5.781631E1,-6.110459E1,1.28418455E1],"categories":[],"categories_nodes":[],"categories_segments":[],"categories_sizes":[],"default_left":[0,0,0,0,0,0,0,0,0,0,0,0,0,0,0],"id":42,"left_children":[1,3,-1,5,7,9,-1,11,13,-1,-1,-1,-1,-1,-1],"loss_changes":[1.3518471E6,1.3224954E6,0E0,1.4786982E6,2.1619172E6,1.4888461E6,0E0,4.219895E5,5.319328E5,0E0,0E0,0E0,0E0,0E0,0E0],"parents":[2147483647,0,0,1,1,3,3,4,4,5,5,7,7,8,8],"right_children":[2,4,-1,6,8,10,-1,12,14,-1,-1,-1,-1,-1,-1],"split_conditions":[2.3125E4,1.713E4,6.9016014E1,2.0379E4,2.09E4,1.5936E4,-7.47571E1,1.0583E4,1.5189E4,-9.551258E0,3.478072E1,1.0338013E1,5.781631E1,-6.110459E1,1.28418455E1],"split_indices":[0,4,0,3,2,3,0,0,0,0,0,0,0,0,0],"split_type":[0,0,0,0,0,0,0,0,0,0,0,0,0,0,0],"sum_hessian":[7.3E1,7.1E1,2E0,5.7E1,1.4E1,5.5E1,2E0,1.1E1,3E0,4.7E1,8E0,3E0,8E0,2E0,1E0],"tree_param":{"num_deleted":"0","num_feature":"6","num_nodes":"15","size_leaf_vector":"1"}},{"base_weights":[-4.337047E1,-1.0518997E2,2.8994775E2,-1.325167E2,3.3784008E1,1.5469238E2,6.441497E1,-4.4291714E1,-2.57789E2,3.1806305E2,-1.698794E1,-1.3106712E1,4.2589245E1,-4.320337E1,-1.3277427E1,5.0682034E1,1.4119609E1],"categories":[],"categories_nodes":[],"categories_segments":[],"categories_sizes":[],"default_left":[0,0,0,0,0,0,0,0,0,0,0,0,0,0,0,0,0],"id":43,"left_children":[1,3,5,7,-1,9,-1,11,13,15,-1,-1,-1,-1,-1,-1,-1],"loss_changes":[1.5759172E6,8.195892E5,4.7524756E5,6.627631E5,0E0,5.8428756E5,0E0,1.565436E6,4.87216E5,1.6213338E5,0E0,0E0,0E0,0E0,0E0,0E0,0E0],"parents":[2147483647,0,0,1,1,2,2,3,3,5,5,7,7,8,8,9,9],"right_children":[2,4,6,8,-1,10,-1,12,14,16,-1,-1,-1,-1,-1,-1,-1],"split_conditions":[1.999E4,2.2135E4,2.3125E4,1.3821E4,3.3784008E1,1.4587E4,6.441497E1,1.2759E4,1.0862E4,1.3401E4,-1.698794E1,-1.3106712E1,4.2589245E1,-4.320337E1,-1.3277427E1,5.0682034E1,1.4119609E1],"split_indices":[0,5,0,5,0,2,0,5,2,1,0,0,0,0,0,0,0],"split_type":[0,0,0,0,0,0,0,0,0,0,0,0,0,0,0,0,0],"sum_hessian":[7.4E1,6.3E1,1.1E1,6E1,3E0,9E0,2E0,3.6E1,2.4E1,6E0,3E0,3.1E1,5E0,9E0,1.5E1,2E0,4E0],"tree_param":{"num_deleted":"0","num_feature":"6","num_nodes":"17","size_leaf_vector":"1"}},{"base_weights":[-1.6410381E1,-7.80611E1,2.7887845E2,-1.7734254E2,1.1051165E2,1.6561807E2,6.0120705E1,-1.676454E1,-4.5456012E2,5.785217E2,-1.4646117E2,3.7343912E2,-6.980599E1,1.8222416E1,-2.450773E1,-9.638135E0,-5.3607307E1,1.2799044E1,9.970554E1,-4.3950317E1,4.4010158E0,1.4659571E1,4.502119E1,6.99056E0,-1.5713819E1],"categories":[],"categories_nodes":[],"categories_segments":[],"categories_sizes":[],"default_left":[0,0,0,0,0,0,0,0,0,0,0,0,0,0,0,0,0,0,0,0,0,0,0,0,0],"id":44,"left_children":[1,3,5,7,9,11,-1,13,15,17,19,21,23,-1,-1,-1,-1,-1,-1,-1,-1,-1,-1,-1,-1],"loss_changes":[1.3689225E6,1.1803485E6,3.7502094E5,1.8174962E6,2.7305798E6,5.642551E5,0E0,1.2713136E6,3.8627575E5,1.3808868E6,8.565841E5,3.849325E4,8.419276E4,0E0,0E0,0E0,0E0,0E0,0E0,0E0,0E0,0E0,0E0,0E0,0E0],"parents":[2147483647,0,0,1,1,2,2,3,3,4,4,5,5,7,7,8,8,9,9,10,10,11,11,12,12],"right_children":[2,4,6,8,10,12,-1,14,16,18,20,22,24,-1,-1,-1,-1,-1,-1,-1,-1,-1,-1,-1,-1],"split_conditions":[1.999E4,1.5936E4,2.3125E4,1.2267E4,1.8581E4,2.09E4,6.0120705E1,1.3791E4,8.728E3,1.713E4,1.9933E4,1.1143E4,1.2965E4,1.8222416E1,-2.450773E1,-9.638135E0,-5.3607307E1,1.2799044E1,9.970554E1,-4.3950317E1,4.4010158E0,1.4659571E1,4.502119E1,6.99056E0,-1.5713819E1],"split_indices":[0,3,0,2,3,0,0,5,4,3,4,3,2,0,0,0,0,0,0,0,0,0,0,0,0],"split_type":[0,0,0,0,0,0,0,0,0,0,0,0,0,0,0,0,0,0,0,0,0,0,0,0,0],"sum_hessian":[7.3E1,6.1E1,1.2E1,4E1,2.1E1,1E1,2E0,2.6E1,1.4E1,7E0,1.4E1,5E0,5E0,1.4E1,1.2E1,3E0,1.1E1,4E0,3E0,5E0,9E0,2E0,3E0,2E0,3E0],"tree_param":{"num_deleted":"0","num_feature":"6","num_nodes":"25","size_leaf_vector":"1"}},{"base_weights":[2.120151E1,-1.2776113E0,5.611263E1,-2.3017195E2,4.3045128E1,-7.2036026E1,-5.284348E2,1.1189561E2,-1.8014609E2,-2.8626856E1,1.5660372E1,-6.36575E1,-1.0200708E1,2.7769324E-1,4.786787E1,-3.6158558E1,2.3811646E0],"categories":[],"categories_nodes":[],"categories_segments":[],"categories_sizes":[],"default_left":[0,0,0,0,0,0,0,0,0,0,0,0,0,0,0,0,0],"id":45,"left_children":[1,3,-1,5,7,9,11,13,15,-1,-1,-1,-1,-1,-1,-1,-1],"loss_changes":[9.1099456E5,7.505091E5,0E0,5.2792656E5,9.729006E5,4.8566938E5,1.19520875E5,1.9197691E6,5.6369975E5,0E0,0E0,0E0,0E0,0E0,0E0,0E0,0E0],"parents":[2147483647,0,0,1,1,3,3,4,4,5,5,6,6,7,7,8,8],"right_children":[2,4,-1,6,8,10,12,14,16,-1,-1,-1,-1,-1,-1,-1,-1],"split_conditions":[2.3125E4,9.374E3,5.611263E1,1.247E4,1.7816E4,1.0015E4,1.6611E4,1.5189E4,1.2674E4,-2.8626856E1,1.5660372E1,-6.36575E1,-1.0200708E1,2.7769324E-1,4.786787E1,-3.6158558E1,2.3811646E0],"split_indices":[0,0,0,2,2,2,2,3,5,0,0,0,0,0,0,0,0],"split_type":[0,0,0,0,0,0,0,0,0,0,0,0,0,0,0,0,0],"sum_hessian":[7.4E1,7.2E1,2E0,1.1E1,6.1E1,8E0,3E0,4.7E1,1.4E1,4E0,4E0,2E0,1E0,3.7E1,1E1,7E0,7E0],"tree_param":{"num_deleted":"0","num_feature":"6","num_nodes":"17","size_leaf_vector":"1"}},{"base_weights":[-1.3549554E1,-7.096165E1,2.524716E2,-2.2623239E0,-2.7690878E2,1.555435E2,5.2371746E1,-5.9049793E1,6.0876858E1,-3.8067294E2,1.0361084E2,3.3752832E2,-5.2365234E1,-2.793577E1,2.541098E0,-1.4071624E1,-5.9717693E1,1.2424512E1,2.0854003E0,1.3663737E1,4.0381447E1,6.506055E0,-1.2734326E1],"categories":[],"categories_nodes":[],"categories_segments":[],"categories_sizes":[],"default_left":[0,0,0,0,0,0,0,0,0,0,0,0,0,0,0,0,0,0,0,0,0,0,0],"id":46,"left_children":[1,3,5,7,9,11,-1,13,-1,15,17,19,21,-1,-1,-1,-1,-1,-1,-1,-1,-1,-1],"loss_changes":[1.1175598E6,8.482793E5,2.6032662E5,1.632097E6,6.317061E5,4.3387328E5,0E0,8.07216E5,0E0,5.3938675E5,4.2395E3,2.4721562E4,6.1111145E4,0E0,0E0,0E0,0E0,0E0,0E0,0E0,0E0,0E0,0E0],"parents":[2147483647,0,0,1,1,2,2,3,3,4,4,5,5,7,7,9,9,10,10,11,11,12,12],"right_children":[2,4,6,8,10,12,-1,14,-1,16,18,20,22,-1,-1,-1,-1,-1,-1,-1,-1,-1,-1],"split_conditions":[1.999E4,1.4752E4,2.3125E4,1.3932E4,2.0249E4,2.09E4,5.2371746E1,9.374E3,6.0876858E1,1.3791E4,1.8944E4,1.0895E4,1.2965E4,-2.793577E1,2.541098E0,-1.4071624E1,-5.9717693E1,1.2424512E1,2.0854003E0,1.3663737E1,4.0381447E1,6.506055E0,-1.2734326E1],"split_indices":[0,0,0,0,1,0,0,0,0,1,0,4,2,0,0,0,0,0,0,0,0,0,0],"split_type":[0,0,0,0,0,0,0,0,0,0,0,0,0,0,0,0,0,0,0,0,0,0,0],"sum_hessian":[7.1E1,5.9E1,1.2E1,4.5E1,1.4E1,1E1,2E0,4.2E1,3E0,1.1E1,3E0,5E0,5E0,1.1E1,3.1E1,6E0,5E0,2E0,1E0,2E0,3E0,2E0,3E0],"tree_param":{"num_deleted":"0","num_feature":"6","num_nodes":"23","size_leaf_vector":"1"}},{"base_weights":[6.02809E1,-1.8289622E2,1.4632024E2,-7.182884E1,-7.7656654E1,3.7898584E2,1.5835464E1,4.5211983E1,-4.882827E2,2.6029147E2,7.5901685E2,-3.076999E2,1.3966309E2,1.935E1,-5.867025E0,-5.8838448E1,-9.398877E0,4.866974E1,3.0120497E0,1.0673151E2,-8.293897E0,-4.313081E1,1.2448861E1,4.629565E1,1.9527247E0],"categories":[],"categories_nodes":[],"categories_segments":[],"categories_sizes":[],"default_left":[0,0,0,0,0,0,0,0,0,0,0,0,0,0,0,0,0,0,0,0,0,0,0,0,0],"id":47,"left_children":[1,3,5,-1,7,9,11,13,15,17,19,21,23,-1,-1,-1,-1,-1,-1,-1,-1,-1,-1,-1,-1],"loss_changes":[1.5122799E6,1.01476456E6,1.6030428E6,0E0,8.797784E5,6.5947725E5,1.4451659E6,2.2701555E5,1.0257644E5,8.191336E5,1.1268162E6,5.8791344E5,1.0007769E6,0E0,0E0,0E0,0E0,0E0,0E0,0E0,0E0,0E0,0E0,0E0,0E0],"parents":[2147483647,0,0,1,1,2,2,4,4,5,5,6,6,7,7,8,8,9,9,10,10,11,11,12,12],"right_children":[2,4,6,-1,8,10,12,14,16,18,20,22,24,-1,-1,-1,-1,-1,-1,-1,-1,-1,-1,-1,-1],"split_conditions":[1.0862E4,8.251E3,1.3784E4,-7.182884E1,2.0677E4,1.701E4,1.0965E4,8.997E3,1.0583E4,1.2267E4,1.701E4,2.0249E4,1.2256E4,1.935E1,-5.867025E0,-5.8838448E1,-9.398877E0,4.866974E1,3.0120497E0,1.0673151E2,-8.293897E0,-4.313081E1,1.2448861E1,4.629565E1,1.9527247E0],"split_indices":[1,3,1,0,5,3,5,2,2,3,2,1,4,0,0,0,0,0,0,0,0,0,0,0,0],"split_type":[0,0,0,0,0,0,0,0,0,0,0,0,0,0,0,0,0,0,0,0,0,0,0,0,0],"sum_hessian":[7E1,1.8E1,5.2E1,2E0,1.6E1,1.8E1,3.4E1,1.3E1,3E0,1.5E1,3E0,9E0,2.5E1,5E0,8E0,2E0,1E0,7E0,8E0,2E0,1E0,7E0,2E0,6E0,1.9E1],"tree_param":{"num_deleted":"0","num_feature":"6","num_nodes":"25","size_leaf_vector":"1"}},{"base_weights":[4.5866295E1,-1.6767252E2,1.02997734E2,-2.963943E2,4.0168945E1,8.552995E1,6.1595924E1,-6.704025E1,-1.1909192E2,2.8448633E1,-1.1445528E2,1.2555336E2,-1.6453336E2,1.6184571E0,-1.4072922E1,-4.411084E0,-1.979165E1,3.8288114E0,5.9380928E1,-3.213329E1,1.5061251E1],"categories":[],"categories_nodes":[],"categories_segments":[],"categories_sizes":[],"default_left":[0,0,0,0,0,0,0,0,0,0,0,0,0,0,0,0,0,0,0,0,0],"id":48,"left_children":[1,3,5,7,9,-1,11,-1,13,-1,15,17,19,-1,-1,-1,-1,-1,-1,-1,-1],"loss_changes":[9.2005356E5,4.3996534E5,1.7849695E6,5.8328606E5,2.9700266E5,0E0,8.450287E5,0E0,2.5693781E4,0E0,2.0624895E4,1.8160754E6,6.907882E5,0E0,0E0,0E0,0E0,0E0,0E0,0E0,0E0],"parents":[2147483647,0,0,1,1,2,2,3,3,4,4,6,6,8,8,10,10,11,11,12,12],"right_children":[2,4,6,8,10,-1,12,-1,14,-1,16,18,20,-1,-1,-1,-1,-1,-1,-1,-1],"split_conditions":[1.0583E4,1.1738E4,1.0792E4,8.251E3,1.276E4,8.552995E1,1.999E4,-6.704025E1,7.237E3,2.8448633E1,9.498E3,1.713E4,1.5189E4,1.6184571E0,-1.4072922E1,-4.411084E0,-1.979165E1,3.8288114E0,5.9380928E1,-3.213329E1,1.5061251E1],"split_indices":[3,1,3,3,1,0,3,0,5,0,3,3,0,0,0,0,0,0,0,0,0],"split_type":[0,0,0,0,0,0,0,0,0,0,0,0,0,0,0,0,0,0,0,0,0],"sum_hessian":[7.3E1,1.5E1,5.8E1,9E0,6E0,2E0,5.6E1,2E0,7E0,2E0,4E0,4.4E1,1.2E1,1E0,6E0,3E0,1E0,3.8E1,6E0,8E0,4E0],"tree_param":{"num_deleted":"0","num_feature":"6","num_nodes":"21","size_leaf_vector":"1"}},{"base_weights":[-3.7500046E1,-1.545082E2,9.0008766E1,-3.1522312E1,-3.0307303E2,2.1321736E2,-6.748472E1,-1.810988E2,2.212743E2,-4.1274487E2,-7.1768E1,3.9547842E2,4.356502E1,-5.5817158E1,3.5151627E1,2.0785499E0,-4.873895E1,-5.0061035E-1,3.3524887E1,1.1941406E1,-4.719788E1,8.0989065E0,-3.0244043E1,7.9827995E1,1.9499304E1,-1.6968384E1,1.3350174E1,-2.516814E1,1.2783334E1],"categories":[],"categories_nodes":[],"categories_segments":[],"categories_sizes":[],"default_left":[0,0,0,0,0,0,0,0,0,0,0,0,0,0,0,0,0,0,0,0,0,0,0,0,0,0,0,0,0],"id":49,"left_children":[1,3,5,7,9,11,13,15,17,19,21,23,25,-1,27,-1,-1,-1,-1,-1,-1,-1,-1,-1,-1,-1,-1,-1,-1],"loss_changes":[1.1477942E6,7.2130156E5,7.323574E5,9.0975844E5,4.2699588E5,6.321121E5,8.757798E5,9.3765975E5,2.3379019E5,4.3462325E5,2.7115228E5,6.5189925E5,2.527999E5,0E0,4.3093588E5,0E0,0E0,0E0,0E0,0E0,0E0,0E0,0E0,0E0,0E0,0E0,0E0,0E0,0E0],"parents":[2147483647,0,0,1,1,2,2,3,3,4,4,5,5,6,6,7,7,8,8,9,9,10,10,11,11,12,12,14,14],"right_children":[2,4,6,8,10,12,14,16,18,20,22,24,26,-1,28,-1,-1,-1,-1,-1,-1,-1,-1,-1,-1,-1,-1,-1,-1],"split_conditions":[1.3821E4,1.276E4,1.3754E4,1.2181E4,1.472E4,1.2267E4,1.5113E4,1.0015E4,7.962E3,1.0862E4,1.8944E4,1.0965E4,1.0947E4,-5.5817158E1,1.5175E4,2.0785499E0,-4.873895E1,-5.0061035E-1,3.3524887E1,1.1941406E1,-4.719788E1,8.0989065E0,-3.0244043E1,7.9827995E1,1.9499304E1,-1.6968384E1,1.3350174E1,-2.516814E1,1.2783334E1],"split_indices":[0,2,3,3,1,4,0,4,0,3,2,2,3,0,3,0,0,0,0,0,0,0,0,0,0,0,0,0,0],"split_type":[0,0,0,0,0,0,0,0,0,0,0,0,0,0,0,0,0,0,0,0,0,0,0,0,0,0,0,0,0],"sum_hessian":[7.5E1,3.9E1,3.6E1,2.2E1,1.7E1,2E1,1.6E1,1.4E1,8E0,1.1E1,6E0,9E0,1.1E1,2E0,1.4E1,9E0,5E0,3E0,5E0,1E0,1E1,4E0,2E0,2E0,7E0,3E0,8E0,3E0,1.1E1],"tree_param":{"num_deleted":"0","num_feature":"6","num_nodes":"29","size_leaf_vector":"1"}},{"base_weights":[1.1524216E1,4.822168E1,-2.0303595E2,-2.4973776E1,2.5205463E2,-4.4704453E2,2.610212E-1,5.8824047E1,-2.1325058E2,-1.7344211E2,4.9991122E2,-1.1693848E1,-5.003364E1,-3.657129E1,1.22208824E2,-1.1012518E1,2.151192E1,-4.231055E0,-3.2250942E1,-6.038623E1,-1.0616862E-1,2.4267454E1,7.6006035E1,2.4397917E1,3.288574E-2],"categories":[],"categories_nodes":[],"categories_segments":[],"categories_sizes":[],"default_left":[0,0,0,0,0,0,0,0,0,0,0,0,0,0,0,0,0,0,0,0,0,0,0,0,0],"id":50,"left_children":[1,3,5,7,9,11,13,15,17,19,21,-1,-1,-1,23,-1,-1,-1,-1,-1,-1,-1,-1,-1,-1],"loss_changes":[5.92453E5,9.611521E5,5.45785E5,7.6984925E5,1.8795626E6,2.9451188E4,3.5710134E5,9.214921E5,2.6650506E5,5.18731E5,5.516715E5,0E0,0E0,0E0,8.896796E4,0E0,0E0,0E0,0E0,0E0,0E0,0E0,0E0,0E0,0E0],"parents":[2147483647,0,0,1,1,2,2,3,3,4,4,5,5,6,6,7,7,8,8,9,9,10,10,14,14],"right_children":[2,4,6,8,10,12,14,16,18,20,22,-1,-1,-1,24,-1,-1,-1,-1,-1,-1,-1,-1,-1,-1],"split_conditions":[1.999E4,1.5189E4,1.5189E4,1.3401E4,1.0862E4,1.2181E4,2.0677E4,1.0583E4,1.2026E4,1.713E4,1.7562E4,-1.1693848E1,-5.003364E1,-3.657129E1,1.5926E4,-1.1012518E1,2.151192E1,-4.231055E0,-3.2250942E1,-6.038623E1,-1.0616862E-1,2.4267454E1,7.6006035E1,2.4397917E1,3.288574E-2],"split_indices":[2,3,0,2,0,0,2,3,3,4,3,0,0,0,0,0,0,0,0,0,0,0,0,0,0],"split_type":[0,0,0,0,0,0,0,0,0,0,0,0,0,0,0,0,0,0,0,0,0,0,0,0,0],"sum_hessian":[7.3E1,6.3E1,1E1,4.7E1,1.6E1,4E0,6E0,3.3E1,1.4E1,6E0,1E1,1E0,3E0,1E0,5E0,1.6E1,1.7E1,6E0,8E0,1E0,5E0,6E0,4E0,2E0,3E0],"tree_param":{"num_deleted":"0","num_feature":"6","num_nodes":"25","size_leaf_vector":"1"}},{"base_weights":[1.4827368E1,-2.2365128E2,4.91746E1,-5.962221E1,-4.547893E2,-4.649694E2,7.146202E1,1.6750782E1,-1.2539518E2,-5.9201336E1,-2.1558595E0,-1.4600635E1,-5.5144775E1,-2.1851544E2,1.08934654E2,-1.3721329E1,-3.3152344E0,5.5584474E0,-3.940923E1,1.6956324E1,-1.4770996E1],"categories":[],"categories_nodes":[],"categories_segments":[],"categories_sizes":[],"default_left":[0,0,0,0,0,0,0,0,0,0,0,0,0,0,0,0,0,0,0,0,0],"id":51,"left_children":[1,3,5,7,9,11,13,-1,15,-1,-1,-1,-1,17,19,-1,-1,-1,-1,-1,-1],"loss_changes":[6.4990225E5,3.5201797E5,8.238949E5,1.2557778E5,2.2503562E5,2.2353125E3,7.518405E5,0E0,1.9918672E3,0E0,0E0,0E0,0E0,4.069102E5,9.5864606E5,0E0,0E0,0E0,0E0,0E0,0E0],"parents":[2147483647,0,0,1,1,2,2,3,3,4,4,5,5,6,6,8,8,13,13,14,14],"right_children":[2,4,6,8,10,12,14,-1,16,-1,-1,-1,-1,18,20,-1,-1,-1,-1,-1,-1],"split_conditions":[8.816E3,8.251E3,8.251E3,7.962E3,1.472E4,1.0677E4,9.374E3,1.6750782E1,1.2268E4,-5.9201336E1,-2.1558595E0,-1.4600635E1,-5.5144775E1,1.247E4,2.0128E4,-1.3721329E1,-3.3152344E0,5.5584474E0,-3.940923E1,1.6956324E1,-1.4770996E1],"split_indices":[4,4,3,3,1,0,0,0,0,0,0,0,0,2,2,0,0,0,0,0,0],"split_type":[0,0,0,0,0,0,0,0,0,0,0,0,0,0,0,0,0,0,0,0,0],"sum_hessian":[7.7E1,9E0,6.8E1,6E0,3E0,2E0,6.6E1,1E0,5E0,2E0,1E0,1E0,1E0,7E0,5.9E1,4E0,1E0,3E0,4E0,4.8E1,1.1E1],"tree_param":{"num_deleted":"0","num_feature":"6","num_nodes":"21","size_leaf_vector":"1"}},{"base_weights":[9.456289E0,-2.0714685E2,4.86954E1,1.43359375E1,-3.6739682E2,1.0112709E2,-1.2147406E2,-4.402285E1,1.5306495E1,-4.2217334E2,-1.9368896E0,4.092012E1,4.196245E2,-2.1612793E2,2.1651953E2,-7.4323573E0,9.5214844E-2,-4.8408634E1,-5.63042E0,3.0850698E1,-5.76242E0,9.2606255E1,9.646811E0,-3.4456387E1,-8.8587236E-1,2.6424284E1,3.6674805E0],"categories":[],"categories_nodes":[],"categories_segments":[],"categories_sizes":[],"default_left":[0,0,0,0,0,0,0,0,0,0,0,0,0,0,0,0,0,0,0,0,0,0,0,0,0,0,0],"id":52,"left_children":[1,3,5,7,9,11,13,15,-1,17,-1,19,21,23,25,-1,-1,-1,-1,-1,-1,-1,-1,-1,-1,-1,-1],"loss_changes":[6.645343E5,4.3117834E5,6.0115425E5,5.53147E4,1.2526925E5,9.6079294E5,5.5867425E5,6.8846426E3,0E0,1.0865625E5,0E0,1.1780209E6,1.2199339E6,3.430182E5,2.4640078E4,0E0,0E0,0E0,0E0,0E0,0E0,0E0,0E0,0E0,0E0,0E0,0E0],"parents":[2147483647,0,0,1,1,2,2,3,3,4,4,5,5,6,6,7,7,9,9,11,11,12,12,13,13,14,14],"right_children":[2,4,6,8,10,12,14,16,-1,18,-1,20,22,24,26,-1,-1,-1,-1,-1,-1,-1,-1,-1,-1,-1,-1],"split_conditions":[9.374E3,7.975E3,1.7816E4,7.962E3,1.6611E4,1.6135E4,2.2135E4,9.545E3,1.5306495E1,9.364E3,-1.9368896E0,1.0965E4,1.2965E4,1.5113E4,1.52E4,-7.4323573E0,9.5214844E-2,-4.8408634E1,-5.63042E0,3.0850698E1,-5.76242E0,9.2606255E1,9.646811E0,-3.4456387E1,-8.8587236E-1,2.6424284E1,3.6674805E0],"split_indices":[0,0,5,0,2,4,5,2,0,0,0,2,0,0,2,0,0,0,0,0,0,0,0,0,0,0,0],"split_type":[0,0,0,0,0,0,0,0,0,0,0,0,0,0,0,0,0,0,0,0,0,0,0,0,0,0,0],"sum_hessian":[7.6E1,1.1E1,6.5E1,5E0,6E0,5E1,1.5E1,4E0,1E0,5E0,1E0,4.3E1,7E0,1.2E1,3E0,2E0,2E0,4E0,1E0,1.1E1,3.2E1,2E0,5E0,7E0,5E0,2E0,1E0],"tree_param":{"num_deleted":"0","num_feature":"6","num_nodes":"27","size_leaf_vector":"1"}},{"base_weights":[-1.127547E0,-1.9489868E1,4.39944E1,9.5814905E0,-2.5325842E2,-6.189171E1,1.7349077E2,-4.2198846E2,2.096875E1,3.5882397E0,-1.9079216E1,3.8456448E1,-1.2721756E1,-1.0082471E1,-4.7707325E1,5.44847E0,-3.978955E0],"categories":[],"categories_nodes":[],"categories_segments":[],"categories_sizes":[],"default_left":[0,0,0,0,0,0,0,0,0,0,0,0,0,0,0,0,0],"id":53,"left_children":[1,3,-1,5,7,9,11,13,15,-1,-1,-1,-1,-1,-1,-1,-1],"loss_changes":[6.079077E5,4.9173638E5,0E0,7.7222044E5,3.790115E5,5.865899E5,1.3183558E6,4.0355375E4,1.0313411E4,0E0,0E0,0E0,0E0,0E0,0E0,0E0,0E0],"parents":[2147483647,0,0,1,1,3,3,4,4,5,5,6,6,7,7,8,8],"right_children":[2,4,-1,6,8,10,12,14,16,-1,-1,-1,-1,-1,-1,-1,-1],"split_conditions":[2.3125E4,2.0379E4,4.39944E1,1.5189E4,2.0249E4,1.2256E4,1.8581E4,1.2181E4,1.999E4,3.5882397E0,-1.9079216E1,3.8456448E1,-1.2721756E1,-1.0082471E1,-4.7707325E1,5.44847E0,-3.978955E0],"split_indices":[0,2,0,3,1,2,3,0,0,0,0,0,0,0,0,0,0],"split_type":[0,0,0,0,0,0,0,0,0,0,0,0,0,0,0,0,0],"sum_hessian":[7.3E1,7.1E1,2E0,6.4E1,7E0,4.5E1,1.9E1,4E0,3E0,2.6E1,1.9E1,1.1E1,8E0,1E0,3E0,2E0,1E0],"tree_param":{"num_deleted":"0","num_feature":"6","num_nodes":"17","size_leaf_vector":"1"}},{"base_weights":[8.142169E0,-8.740601E0,4.106146E1,-1.5468405E2,2.3026155E1,-8.034115E1,-5.2339943E1,-4.6633224E1,1.3711443E2,-3.0076221E1,-3.2960851E0,9.054627E-1,-2.9454437E1,3.4147793E1,-7.8675294E0],"categories":[],"categories_nodes":[],"categories_segments":[],"categories_sizes":[],"default_left":[0,0,0,0,0,0,0,0,0,0,0,0,0,0,0],"id":54,"left_children":[1,3,-1,5,7,9,-1,11,13,-1,-1,-1,-1,-1,-1],"loss_changes":[5.0640784E5,3.3736456E5,0E0,3.1429725E5,4.8323322E5,1.1541001E5,0E0,5.272812E5,1.04115556E6,0E0,0E0,0E0,0E0,0E0,0E0],"parents":[2147483647,0,0,1,1,3,3,4,4,5,5,7,7,8,8],"right_children":[2,4,-1,6,8,10,-1,12,14,-1,-1,-1,-1,-1,-1],"split_conditions":[2.3125E4,9.374E3,4.106146E1,2.0249E4,1.5189E4,7.237E3,-5.2339943E1,1.3784E4,1.7816E4,-3.0076221E1,-3.2960851E0,9.054627E-1,-2.9454437E1,3.4147793E1,-7.8675294E0],"split_indices":[0,0,0,3,3,3,0,3,2,0,0,0,0,0,0],"split_type":[0,0,0,0,0,0,0,0,0,0,0,0,0,0,0],"sum_hessian":[7.3E1,7.1E1,2E0,1.2E1,5.9E1,1.1E1,1E0,3.7E1,2.2E1,1E0,1E1,3.1E1,6E0,1.1E1,1.1E1],"tree_param":{"num_deleted":"0","num_feature":"6","num_nodes":"15","size_leaf_vector":"1"}},{"base_weights":[2.356798E1,-1.1464732E2,8.9564415E1,-5.5252655E1,-5.3179073E1,5.224756E2,5.239688E1,-1.2624534E2,3.1352393E2,6.1726788E1,1.1904932E1,-4.9367825E1,7.405841E1,-1.8347876E1,8.215068E0,3.534196E1,9.691846E0,1.2922668E1,-1.232555E1],"categories":[],"categories_nodes":[],"categories_segments":[],"categories_sizes":[],"default_left":[0,0,0,0,0,0,0,0,0,0,0,0,0,0,0,0,0,0,0],"id":55,"left_children":[1,3,5,7,-1,9,11,13,15,-1,-1,-1,17,-1,-1,-1,-1,-1,-1],"loss_changes":[7.035188E5,5.900195E5,8.0931644E5,6.41731E5,0E0,7.94815E4,6.1617325E5,2.5361731E5,3.13625E2,0E0,0E0,0E0,5.384305E5,0E0,0E0,0E0,0E0,0E0,0E0],"parents":[2147483647,0,0,1,1,2,2,3,3,5,5,6,6,7,7,8,8,12,12],"right_children":[2,4,6,8,-1,10,12,14,16,-1,-1,-1,18,-1,-1,-1,-1,-1,-1],"split_conditions":[1.1608E4,1.1143E4,1.2143E4,1.0862E4,-5.3179073E1,1.2256E4,7.049E3,1.2267E4,1.0965E4,6.1726788E1,1.1904932E1,-4.9367825E1,1.7816E4,-1.8347876E1,8.215068E0,3.534196E1,9.691846E0,1.2922668E1,-1.232555E1],"split_indices":[0,0,0,0,0,1,5,1,0,0,0,0,5,0,0,0,0,0,0],"split_type":[0,0,0,0,0,0,0,0,0,0,0,0,0,0,0,0,0,0,0],"sum_hessian":[7.5E1,2.4E1,5.1E1,2.2E1,2E0,3E0,4.8E1,1.9E1,3E0,2E0,1E0,1E0,4.7E1,1.5E1,4E0,2E0,1E0,3.7E1,1E1],"tree_param":{"num_deleted":"0","num_feature":"6","num_nodes":"19","size_leaf_vector":"1"}},{"base_weights":[4.444741E1,-9.888563E1,8.7942215E1,6.451085E1,-2.5129482E2,4.3833072E2,1.897543E1,-2.232041E2,1.7860143E2,-3.6737842E2,-1.3202327E2,6.3267645E2,3.7229492E1,-4.4721338E2,6.0924973E1,-5.825586E0,-2.765503E1,3.580083E1,-4.5455813E0,-1.244987E1,-5.480088E1,-1.5243848E1,-1.4973633E0,7.13973E1,1.1309669E1,7.5115886E0,-3.8214843E0,-5.860928E1,-1.5287598E0,1.1375007E1,-1.3005538E1],"categories":[],"categories_nodes":[],"categories_segments":[],"categories_sizes":[],"default_left":[0,0,0,0,0,0,0,0,0,0,0,0,0,0,0,0,0,0,0,0,0,0,0,0,0,0,0,0,0,0,0],"id":56,"left_children":[1,3,5,7,9,11,13,15,17,19,21,23,25,27,29,-1,-1,-1,-1,-1,-1,-1,-1,-1,-1,-1,-1,-1,-1,-1,-1],"loss_changes":[4.5132744E5,4.3956438E5,1.3207668E6,3.3529466E5,7.610675E4,6.780165E5,9.463976E5,1.0287406E4,2.9765544E5,1.07259375E5,1.2055E4,1.726925E5,1.4303797E4,2.3098244E5,4.5869025E5,0E0,0E0,0E0,0E0,0E0,0E0,0E0,0E0,0E0,0E0,0E0,0E0,0E0,0E0,0E0,0E0],"parents":[2147483647,0,0,1,1,2,2,3,3,4,4,5,5,6,6,7,7,8,8,9,9,10,10,11,11,12,12,13,13,14,14],"right_children":[2,4,6,8,10,12,14,16,18,20,22,24,26,28,30,-1,-1,-1,-1,-1,-1,-1,-1,-1,-1,-1,-1,-1,-1,-1,-1],"split_conditions":[1.0583E4,1.1474E4,1.1837E4,8.642E3,7.962E3,2.0128E4,1.2181E4,7.61E3,8.642E3,1.2267E4,1.4767E4,1.2256E4,2.0677E4,1.3821E4,2.0128E4,-5.825586E0,-2.765503E1,3.580083E1,-4.5455813E0,-1.244987E1,-5.480088E1,-1.5243848E1,-1.4973633E0,7.13973E1,1.1309669E1,7.5115886E0,-3.8214843E0,-5.860928E1,-1.5287598E0,1.1375007E1,-1.3005538E1],"split_indices":[3,5,3,0,2,0,3,0,3,0,1,2,0,0,2,0,0,0,0,0,0,0,0,0,0,0,0,0,0,0,0],"split_type":[0,0,0,0,0,0,0,0,0,0,0,0,0,0,0,0,0,0,0,0,0,0,0,0,0,0,0,0,0,0,0],"sum_hessian":[7E1,1.6E1,5.4E1,8E0,8E0,8E0,4.6E1,2E0,6E0,3E0,5E0,5E0,3E0,3E0,4.3E1,1E0,1E0,3E0,3E0,2E0,1E0,4E0,1E0,4E0,1E0,2E0,1E0,2E0,1E0,3.4E1,9E0],"tree_param":{"num_deleted":"0","num_feature":"6","num_nodes":"31","size_leaf_vector":"1"}},{"base_weights":[2.0756681E1,-1.1682733E2,6.546943E1,-3.6644206E0,-4.329506E2,-8.344098E1,1.19355415E2,2.2519531E2,-1.4061382E2,-5.680085E1,-1.5357585E1,1.5545996E2,-2.0616504E2,2.3647382E2,-4.1029606E1,-7.589893E0,3.0059393E1,-2.92934E1,9.75529E-1,2.2289503E1,1.3726562E0,-6.6300786E-1,-3.1923786E1,3.8873272E1,3.9132245E0,-5.0682064E1,4.358232E0],"categories":[],"categories_nodes":[],"categories_segments":[],"categories_sizes":[],"default_left":[0,0,0,0,0,0,0,0,0,0,0,0,0,0,0,0,0,0,0,0,0,0,0,0,0,0,0],"id":57,"left_children":[1,3,5,7,9,11,13,15,17,-1,-1,19,21,23,25,-1,-1,-1,-1,-1,-1,-1,-1,-1,-1,-1,-1],"loss_changes":[4.7518238E5,6.7810856E5,4.753618E5,5.0179862E5,1.0142644E5,5.0115272E5,8.174159E5,1.5902731E5,2.3190012E5,0E0,0E0,5.428722E4,2.4606522E5,7.359635E5,7.709065E5,0E0,0E0,0E0,0E0,0E0,0E0,0E0,0E0,0E0,0E0,0E0,0E0],"parents":[2147483647,0,0,1,1,2,2,3,3,4,4,5,5,6,6,7,7,8,8,11,11,12,12,13,13,14,14],"right_children":[2,4,6,8,10,12,14,16,18,-1,-1,20,22,24,26,-1,-1,-1,-1,-1,-1,-1,-1,-1,-1,-1,-1],"split_conditions":[1.0862E4,1.0015E4,1.0895E4,8.816E3,1.0583E4,1.2268E4,1.5189E4,7.237E3,1.0015E4,-5.680085E1,-1.5357585E1,9.374E3,1.2026E4,1.7697E4,1.5388E4,-7.589893E0,3.0059393E1,-2.92934E1,9.75529E-1,2.2289503E1,1.3726562E0,-6.6300786E-1,-3.1923786E1,3.8873272E1,3.9132245E0,-5.0682064E1,4.358232E0],"split_indices":[1,1,5,2,2,1,5,1,2,0,0,5,3,2,5,0,0,0,0,0,0,0,0,0,0,0,0],"split_type":[0,0,0,0,0,0,0,0,0,0,0,0,0,0,0,0,0,0,0,0,0,0,0,0,0,0,0],"sum_hessian":[7.5E1,1.8E1,5.7E1,1.4E1,4E0,1.5E1,4.2E1,5E0,9E0,2E0,2E0,5E0,1E1,2.4E1,1.8E1,1E0,4E0,4E0,5E0,3E0,2E0,4E0,6E0,1.3E1,1.1E1,2E0,1.6E1],"tree_param":{"num_deleted":"0","num_feature":"6","num_nodes":"27","size_leaf_vector":"1"}},{"base_weights":[2.9816738E1,-1.0018707E2,6.874974E1,5.2532063E1,-2.417743E2,6.1372395E1,3.720025E1,-1.453612E2,1.7570557E2,-2.67557E2,-1.7756348E0,-3.080791E2,6.3551567E1,-2.843099E0,-2.4807592E1,3.083523E1,-5.972526E0,-1.459948E1,-4.214958E1,-3.684056E1,-6.3549805E0,-3.6619385E1,7.9470353E0],"categories":[],"categories_nodes":[],"categories_segments":[],"categories_sizes":[],"default_left":[0,0,0,0,0,0,0,0,0,0,0,0,0,0,0,0,0,0,0,0,0,0,0],"id":58,"left_children":[1,3,5,7,9,-1,11,13,15,17,-1,19,21,-1,-1,-1,-1,-1,-1,-1,-1,-1,-1],"loss_changes":[3.7131138E5,3.8029325E5,9.400141E5,2.4491762E5,4.723125E4,0E0,5.1090144E5,4.0988766E4,2.057912E5,8.816894E4,0E0,3.559425E4,3.7799388E5,0E0,0E0,0E0,0E0,0E0,0E0,0E0,0E0,0E0,0E0],"parents":[2147483647,0,0,1,1,2,2,3,3,4,4,6,6,7,7,8,8,9,9,11,11,12,12],"right_children":[2,4,6,8,10,-1,12,14,16,18,-1,20,22,-1,-1,-1,-1,-1,-1,-1,-1,-1,-1],"split_conditions":[1.0583E4,1.1474E4,1.0792E4,9.374E3,1.3784E4,6.1372395E1,8.816E3,8.997E3,1.3791E4,1.2674E4,-1.7756348E0,1.2143E4,7.049E3,-2.843099E0,-2.4807592E1,3.083523E1,-5.972526E0,-1.459948E1,-4.214958E1,-3.684056E1,-6.3549805E0,-3.6619385E1,7.9470353E0],"split_indices":[3,5,3,1,0,0,4,1,0,0,0,3,1,0,0,0,0,0,0,0,0,0,0],"split_type":[0,0,0,0,0,0,0,0,0,0,0,0,0,0,0,0,0,0,0,0,0,0,0],"sum_hessian":[7.1E1,1.6E1,5.5E1,8E0,8E0,2E0,5.3E1,3E0,5E0,7E0,1E0,3E0,5E1,2E0,1E0,3E0,2E0,5E0,2E0,2E0,1E0,1E0,4.9E1],"tree_param":{"num_deleted":"0","num_feature":"6","num_nodes":"23","size_leaf_vector":"1"}},{"base_weights":[1.0221784E1,-1.0838815E2,4.4224277E1,8.826323E0,-3.9146817E2,8.675271E1,-1.12934235E2,2.2227734E2,-1.5236523E2,-5.1874054E1,-1.3370638E1,3.9093945E1,4.7926758E2,-3.2484024E2,6.011206E1,2.8511915E1,-4.596582E0,-3.114159E1,5.34834E-1,1.4236496E1,-5.689672E0,7.522422E1,4.653711E0,-4.726244E1,-1.9514649E0,1.700434E1,-3.5470364E1],"categories":[],"categories_nodes":[],"categories_segments":[],"categories_sizes":[],"default_left":[0,0,0,0,0,0,0,0,0,0,0,0,0,0,0,0,0,0,0,0,0,0,0,0,0,0,0],"id":59,"left_children":[1,3,5,7,9,11,13,15,17,-1,-1,19,21,23,25,-1,-1,-1,-1,-1,-1,-1,-1,-1,-1,-1,-1],"loss_changes":[3.0727094E5,5.675335E5,4.0413594E5,4.8115188E5,9.4670875E4,8.6048206E5,4.96231E5,1.1424703E5,2.0234116E5,0E0,0E0,4.3436134E5,5.55615E5,2.6151056E5,4.2512488E5,0E0,0E0,0E0,0E0,0E0,0E0,0E0,0E0,0E0,0E0,0E0,0E0],"parents":[2147483647,0,0,1,1,2,2,3,3,4,4,5,5,6,6,7,7,8,8,11,11,12,12,13,13,14,14],"right_children":[2,4,6,8,10,12,14,16,18,-1,-1,20,22,24,26,-1,-1,-1,-1,-1,-1,-1,-1,-1,-1,-1,-1],"split_conditions":[1.0862E4,1.0015E4,1.999E4,8.816E3,1.0583E4,1.7562E4,1.9933E4,9.498E3,1.2181E4,-5.1874054E1,-1.3370638E1,1.3401E4,1.2759E4,1.8944E4,2.3541E4,2.8511915E1,-4.596582E0,-3.114159E1,5.34834E-1,1.4236496E1,-5.689672E0,7.522422E1,4.653711E0,-4.726244E1,-1.9514649E0,1.700434E1,-3.5470364E1],"split_indices":[1,1,3,2,2,3,4,1,3,0,0,2,1,1,3,0,0,0,0,0,0,0,0,0,0,0,0],"split_type":[0,0,0,0,0,0,0,0,0,0,0,0,0,0,0,0,0,0,0,0,0,0,0,0,0,0,0],"sum_hessian":[7.4E1,1.6E1,5.8E1,1.2E1,4E0,4.6E1,1.2E1,5E0,7E0,2E0,2E0,4.2E1,4E0,5E0,7E0,4E0,1E0,3E0,4E0,2E1,2.2E1,2E0,2E0,3E0,2E0,6E0,1E0],"tree_param":{"num_deleted":"0","num_feature":"6","num_nodes":"27","size_leaf_vector":"1"}},{"base_weights":[9.312588E0,3.941706E1,-2.057984E2,-1.02584564E2,8.498051E1,-3.3881277E2,1.7316797E1,-4.4353176E1,-2.2196987E1,2.289643E2,1.3339844E0,-4.1307602E1,5.3383303E0,-8.497819E0,2.3632683E1,-1.6540333E1,2.8859797E1,-2.0401505E1,9.055817E0],"categories":[],"categories_nodes":[],"categories_segments":[],"categories_sizes":[],"default_left":[0,0,0,0,0,0,0,0,0,0,0,0,0,0,0,0,0,0,0],"id":60,"left_children":[1,3,5,7,9,11,-1,-1,13,15,17,-1,-1,-1,-1,-1,-1,-1,-1],"loss_changes":[4.7436975E5,4.2280303E5,5.123433E5,4.2868156E5,5.89838E5,2.2593162E5,0E0,0E0,2.4730873E5,4.7105156E5,6.047824E5,0E0,0E0,0E0,0E0,0E0,0E0,0E0,0E0],"parents":[2147483647,0,0,1,1,2,2,3,3,4,4,5,5,8,8,9,9,10,10],"right_children":[2,4,6,8,10,12,-1,-1,14,16,18,-1,-1,-1,-1,-1,-1,-1,-1],"split_conditions":[2.0379E4,1.0677E4,2.0128E4,8.251E3,1.3401E4,1.5189E4,1.7316797E1,-4.4353176E1,1.1608E4,8.816E3,1.0965E4,-4.1307602E1,5.3383303E0,-8.497819E0,2.3632683E1,-1.6540333E1,2.8859797E1,-2.0401505E1,9.055817E0],"split_indices":[3,1,5,3,1,0,0,0,0,0,5,0,0,0,0,0,0,0,0],"split_type":[0,0,0,0,0,0,0,0,0,0,0,0,0,0,0,0,0,0,0],"sum_hessian":[7.1E1,6.3E1,8E0,1.5E1,4.8E1,6E0,2E0,2E0,1.3E1,1.7E1,3.1E1,5E0,1E0,1.1E1,2E0,2E0,1.5E1,9E0,2.2E1],"tree_param":{"num_deleted":"0","num_feature":"6","num_nodes":"19","size_leaf_vector":"1"}},{"base_weights":[-3.6097465E0,7.483934E1,-9.621292E1,1.9880149E0,4.0759E2,-4.8059246E1,-5.591126E1,2.1138477E2,-8.534347E1,8.882813E-1,4.725607E2,1.02509865E2,-1.2537944E2,-1.4492024E1,3.1857605E1,-1.3751345E1,2.0988478E1,5.467871E1,5.0714355E0,-1.2790748E1,2.1953264E1,-2.823203E1,-1.5533203E0],"categories":[],"categories_nodes":[],"categories_segments":[],"categories_sizes":[],"default_left":[0,0,0,0,0,0,0,0,0,0,0,0,0,0,0,0,0,0,0,0,0,0,0],"id":61,"left_children":[1,3,5,7,9,-1,11,13,15,-1,17,19,21,-1,-1,-1,-1,-1,-1,-1,-1,-1,-1],"loss_changes":[5.2298953E5,9.446014E5,4.843369E5,6.2150894E5,1.7713238E5,0E0,3.540147E5,4.2809606E5,3.9851112E5,0E0,1.6014288E5,2.9772062E5,3.7488066E5,0E0,0E0,0E0,0E0,0E0,0E0,0E0,0E0,0E0,0E0],"parents":[2147483647,0,0,1,1,2,2,3,3,4,4,6,6,7,7,8,8,10,10,11,11,12,12],"right_children":[2,4,6,8,10,-1,12,14,16,-1,18,20,22,-1,-1,-1,-1,-1,-1,-1,-1,-1,-1],"split_conditions":[1.3791E4,1.2759E4,1.4395E4,1.0895E4,7.962E3,-4.8059246E1,1.3932E4,8.642E3,1.4587E4,8.882813E-1,2.09E4,9.545E3,1.713E4,-1.4492024E1,3.1857605E1,-1.3751345E1,2.0988478E1,5.467871E1,5.0714355E0,-1.2790748E1,2.1953264E1,-2.823203E1,-1.5533203E0],"split_indices":[5,5,5,2,0,0,4,0,4,0,2,3,4,0,0,0,0,0,0,0,0,0,0],"split_type":[0,0,0,0,0,0,0,0,0,0,0,0,0,0,0,0,0,0,0,0,0,0,0],"sum_hessian":[7E1,3.8E1,3.2E1,3.2E1,6E0,2E0,3E1,9E0,2.3E1,1E0,5E0,9E0,2.1E1,2E0,7E0,2E1,3E0,4E0,1E0,3E0,6E0,8E0,1.3E1],"tree_param":{"num_deleted":"0","num_feature":"6","num_nodes":"23","size_leaf_vector":"1"}},{"base_weights":[3.135921E0,7.072835E1,-8.636167E1,7.75452E0,3.7549344E2,-2.4184766E2,-2.1764479E1,1.6827467E2,-6.3184532E1,8.438477E-1,4.3526285E2,3.7322266E1,-3.2694223E2,3.444772E1,-7.304832E1,-5.9376173E0,3.068432E1,-1.0709944E1,1.9414356E1,5.0304394E1,4.817871E0,-1.5388672E0,7.137207E0,-2.0153482E0,-4.4562706E1,-2.2258553E1,1.605599E-1],"categories":[],"categories_nodes":[],"categories_segments":[],"categories_sizes":[],"default_left":[0,0,0,0,0,0,0,0,0,0,0,0,0,0,0,0,0,0,0,0,0,0,0,0,0,0,0],"id":62,"left_children":[1,3,5,7,9,11,13,15,17,-1,19,21,23,-1,25,-1,-1,-1,-1,-1,-1,-1,-1,-1,-1,-1,-1],"loss_changes":[4.3561275E5,7.839695E5,3.0609906E5,4.0918253E5,1.4989756E5,2.2600488E5,4.571559E5,3.6521678E5,3.033061E5,0E0,1.33186E5,6.482713E3,2.4589719E5,0E0,2.3479166E5,0E0,0E0,0E0,0E0,0E0,0E0,0E0,0E0,0E0,0E0,0E0,0E0],"parents":[2147483647,0,0,1,1,2,2,3,3,4,4,5,5,6,6,7,7,8,8,10,10,11,11,12,12,14,14],"right_children":[2,4,6,8,10,12,14,16,18,-1,20,22,24,-1,26,-1,-1,-1,-1,-1,-1,-1,-1,-1,-1,-1,-1],"split_conditions":[1.3791E4,1.2759E4,1.5388E4,1.0895E4,7.962E3,1.0583E4,1.5936E4,9.498E3,1.4587E4,8.438477E-1,2.09E4,9.374E3,8.816E3,3.444772E1,1.0862E4,-5.9376173E0,3.068432E1,-1.0709944E1,1.9414356E1,5.0304394E1,4.817871E0,-1.5388672E0,7.137207E0,-2.0153482E0,-4.4562706E1,-2.2258553E1,1.605599E-1],"split_indices":[5,5,5,2,0,4,5,0,4,0,2,0,0,0,2,0,0,0,0,0,0,0,0,0,0,0,0],"split_type":[0,0,0,0,0,0,0,0,0,0,0,0,0,0,0,0,0,0,0,0,0,0,0,0,0,0,0],"sum_hessian":[7E1,4E1,3E1,3.4E1,6E0,8E0,2.2E1,1E1,2.4E1,1E0,5E0,2E0,6E0,2E0,2E1,4E0,6E0,2.1E1,3E0,4E0,1E0,1E0,1E0,2E0,4E0,6E0,1.4E1],"tree_param":{"num_deleted":"0","num_feature":"6","num_nodes":"27","size_leaf_vector":"1"}},{"base_weights":[1.4771324E1,-2.63146E2,3.1142935E1,-1.4619141E0,-3.4111523E1,-7.7943825E1,7.594694E1,1.5204004E2,-1.4494229E2,3.1872827E2,2.6722609E1,-2.7117515E0,2.8051758E1,-2.0906616E1,3.7943459E0,3.4659505E0,4.0764126E1,5.128008E1,1.7506348E-1],"categories":[],"categories_nodes":[],"categories_segments":[],"categories_sizes":[],"default_left":[0,0,0,0,0,0,0,0,0,0,0,0,0,0,0,0,0,0,0],"id":63,"left_children":[1,3,5,-1,-1,7,9,11,13,15,17,-1,-1,-1,-1,-1,-1,-1,-1],"loss_changes":[3.2669194E5,7.2523E4,3.3338366E5,0E0,0E0,3.3020834E5,5.651187E5,1.2269555E5,1.9557016E5,1.8793069E5,4.9677388E5,0E0,0E0,0E0,0E0,0E0,0E0,0E0,0E0],"parents":[2147483647,0,0,1,1,2,2,5,5,6,6,7,7,8,8,9,9,10,10],"right_children":[2,4,6,-1,-1,8,10,12,14,16,18,-1,-1,-1,-1,-1,-1,-1,-1],"split_conditions":[7.962E3,9.374E3,1.0895E4,-1.4619141E0,-3.4111523E1,9.498E3,1.2267E4,9.498E3,1.2026E4,1.2674E4,1.0947E4,-2.7117515E0,2.8051758E1,-2.0906616E1,3.7943459E0,3.4659505E0,4.0764126E1,5.128008E1,1.7506348E-1],"split_indices":[2,0,5,0,0,2,4,0,4,0,5,0,0,0,0,0,0,0,0],"split_type":[0,0,0,0,0,0,0,0,0,0,0,0,0,0,0,0,0,0,0],"sum_hessian":[6.9E1,3E0,6.6E1,1E0,2E0,1.9E1,4.7E1,4E0,1.5E1,7E0,4E1,2E0,2E0,1.1E1,4E0,2E0,5E0,1E0,3.9E1],"tree_param":{"num_deleted":"0","num_feature":"6","num_nodes":"19","size_leaf_vector":"1"}},{"base_weights":[1.6263165E1,-9.375069E0,1.4123114E2,1.9751602E1,-2.1573071E2,8.929714E1,2.8457876E1,-1.8794317E1,2.5819464E2,-3.6885876E1,1.6243555E2,1.6978076E2,-9.3994385E1,2.039974E0,-1.4460881E1,6.1723896E1,3.5640056E0,1.9248926E1,5.1164064E0,9.561699E0,2.2004028E1,-1.5075488E1,-2.4822593E0],